{"learner":{"attributes":{"best_iteration":"99","best_ntree_limit":"100","scikit_learn":"{\"use_label_encoder\": null, \"n_estimators\": 100, \"objective\": \"multi:softprob\", \"max_depth\": null, \"max_leaves\": null, \"max_bin\": null, \"grow_policy\": null, \"learning_rate\": null, \"verbosity\": null, \"booster\": null, \"tree_method\": null, \"gamma\": null, \"min_child_weight\": null, \"max_delta_step\": null, \"subsample\": null, \"sampling_method\": null, \"colsample_bytree\": null, \"colsample_bylevel\": null, \"colsample_bynode\": null, \"reg_alpha\": null, \"reg_lambda\": null, \"scale_pos_weight\": null, \"base_score\": null, \"missing\": NaN, \"num_parallel_tree\": null, \"random_state\": 42, \"n_jobs\": null, \"monotone_constraints\": null, \"interaction_constraints\": null, \"importance_type\": null, \"gpu_id\": null, \"validate_parameters\": null, \"predictor\": null, \"enable_categorical\": false, \"feature_types\": null, \"max_cat_to_onehot\": null, \"max_cat_threshold\": null, \"eval_metric\": \"mlogloss\", \"early_stopping_rounds\": null, \"callbacks\": null, \"classes_\": [0, 1, 2, 3, 4, 5, 6, 7, 8, 9, 10, 11, 12, 13, 14, 15, 16, 17, 18, 19, 20, 21, 22, 23, 24, 25], \"n_classes_\": 26, \"_estimator_type\": \"classifier\"}"},"feature_names":[],"feature_types":[],"gradient_booster":{"model":{"gbtree_model_param":{"num_parallel_tree":"1","num_trees":"2600","size_leaf_vector":"0"},"tree_info":[0,1,2,3,4,5,6,7,8,9,10,11,12,13,14,15,16,17,18,19,20,21,22,23,24,25,0,1,2,3,4,5,6,7,8,9,10,11,12,13,14,15,16,17,18,19,20,21,22,23,24,25,0,1,2,3,4,5,6,7,8,9,10,11,12,13,14,15,16,17,18,19,20,21,22,23,24,25,0,1,2,3,4,5,6,7,8,9,10,11,12,13,14,15,16,17,18,19,20,21,22,23,24,25,0,1,2,3,4,5,6,7,8,9,10,11,12,13,14,15,16,17,18,19,20,21,22,23,24,25,0,1,2,3,4,5,6,7,8,9,10,11,12,13,14,15,16,17,18,19,20,21,22,23,24,25,0,1,2,3,4,5,6,7,8,9,10,11,12,13,14,15,16,17,18,19,20,21,22,23,24,25,0,1,2,3,4,5,6,7,8,9,10,11,12,13,14,15,16,17,18,19,20,21,22,23,24,25,0,1,2,3,4,5,6,7,8,9,10,11,12,13,14,15,16,17,18,19,20,21,22,23,24,25,0,1,2,3,4,5,6,7,8,9,10,11,12,13,14,15,16,17,18,19,20,21,22,23,24,25,0,1,2,3,4,5,6,7,8,9,10,11,12,13,14,15,16,17,18,19,20,21,22,23,24,25,0,1,2,3,4,5,6,7,8,9,10,11,12,13,14,15,16,17,18,19,20,21,22,23,24,25,0,1,2,3,4,5,6,7,8,9,10,11,12,13,14,15,16,17,18,19,20,21,22,23,24,25,0,1,2,3,4,5,6,7,8,9,10,11,12,13,14,15,16,17,18,19,20,21,22,23,24,25,0,1,2,3,4,5,6,7,8,9,10,11,12,13,14,15,16,17,18,19,20,21,22,23,24,25,0,1,2,3,4,5,6,7,8,9,10,11,12,13,14,15,16,17,18,19,20,21,22,23,24,25,0,1,2,3,4,5,6,7,8,9,10,11,12,13,14,15,16,17,18,19,20,21,22,23,24,25,0,1,2,3,4,5,6,7,8,9,10,11,12,13,14,15,16,17,18,19,20,21,22,23,24,25,0,1,2,3,4,5,6,7,8,9,10,11,12,13,14,15,16,17,18,19,20,21,22,23,24,25,0,1,2,3,4,5,6,7,8,9,10,11,12,13,14,15,16,17,18,19,20,21,22,23,24,25,0,1,2,3,4,5,6,7,8,9,10,11,12,13,14,15,16,17,18,19,20,21,22,23,24,25,0,1,2,3,4,5,6,7,8,9,10,11,12,13,14,15,16,17,18,19,20,21,22,23,24,25,0,1,2,3,4,5,6,7,8,9,10,11,12,13,14,15,16,17,18,19,20,21,22,23,24,25,0,1,2,3,4,5,6,7,8,9,10,11,12,13,14,15,16,17,18,19,20,21,22,23,24,25,0,1,2,3,4,5,6,7,8,9,10,11,12,13,14,15,16,17,18,19,20,21,22,23,24,25,0,1,2,3,4,5,6,7,8,9,10,11,12,13,14,15,16,17,18,19,20,21,22,23,24,25,0,1,2,3,4,5,6,7,8,9,10,11,12,13,14,15,16,17,18,19,20,21,22,23,24,25,0,1,2,3,4,5,6,7,8,9,10,11,12,13,14,15,16,17,18,19,20,21,22,23,24,25,0,1,2,3,4,5,6,7,8,9,10,11,12,13,14,15,16,17,18,19,20,21,22,23,24,25,0,1,2,3,4,5,6,7,8,9,10,11,12,13,14,15,16,17,18,19,20,21,22,23,24,25,0,1,2,3,4,5,6,7,8,9,10,11,12,13,14,15,16,17,18,19,20,21,22,23,24,25,0,1,2,3,4,5,6,7,8,9,10,11,12,13,14,15,16,17,18,19,20,21,22,23,24,25,0,1,2,3,4,5,6,7,8,9,10,11,12,13,14,15,16,17,18,19,20,21,22,23,24,25,0,1,2,3,4,5,6,7,8,9,10,11,12,13,14,15,16,17,18,19,20,21,22,23,24,25,0,1,2,3,4,5,6,7,8,9,10,11,12,13,14,15,16,17,18,19,20,21,22,23,24,25,0,1,2,3,4,5,6,7,8,9,10,11,12,13,14,15,16,17,18,19,20,21,22,23,24,25,0,1,2,3,4,5,6,7,8,9,10,11,12,13,14,15,16,17,18,19,20,21,22,23,24,25,0,1,2,3,4,5,6,7,8,9,10,11,12,13,14,15,16,17,18,19,20,21,22,23,24,25,0,1,2,3,4,5,6,7,8,9,10,11,12,13,14,15,16,17,18,19,20,21,22,23,24,25,0,1,2,3,4,5,6,7,8,9,10,11,12,13,14,15,16,17,18,19,20,21,22,23,24,25,0,1,2,3,4,5,6,7,8,9,10,11,12,13,14,15,16,17,18,19,20,21,22,23,24,25,0,1,2,3,4,5,6,7,8,9,10,11,12,13,14,15,16,17,18,19,20,21,22,23,24,25,0,1,2,3,4,5,6,7,8,9,10,11,12,13,14,15,16,17,18,19,20,21,22,23,24,25,0,1,2,3,4,5,6,7,8,9,10,11,12,13,14,15,16,17,18,19,20,21,22,23,24,25,0,1,2,3,4,5,6,7,8,9,10,11,12,13,14,15,16,17,18,19,20,21,22,23,24,25,0,1,2,3,4,5,6,7,8,9,10,11,12,13,14,15,16,17,18,19,20,21,22,23,24,25,0,1,2,3,4,5,6,7,8,9,10,11,12,13,14,15,16,17,18,19,20,21,22,23,24,25,0,1,2,3,4,5,6,7,8,9,10,11,12,13,14,15,16,17,18,19,20,21,22,23,24,25,0,1,2,3,4,5,6,7,8,9,10,11,12,13,14,15,16,17,18,19,20,21,22,23,24,25,0,1,2,3,4,5,6,7,8,9,10,11,12,13,14,15,16,17,18,19,20,21,22,23,24,25,0,1,2,3,4,5,6,7,8,9,10,11,12,13,14,15,16,17,18,19,20,21,22,23,24,25,0,1,2,3,4,5,6,7,8,9,10,11,12,13,14,15,16,17,18,19,20,21,22,23,24,25,0,1,2,3,4,5,6,7,8,9,10,11,12,13,14,15,16,17,18,19,20,21,22,23,24,25,0,1,2,3,4,5,6,7,8,9,10,11,12,13,14,15,16,17,18,19,20,21,22,23,24,25,0,1,2,3,4,5,6,7,8,9,10,11,12,13,14,15,16,17,18,19,20,21,22,23,24,25,0,1,2,3,4,5,6,7,8,9,10,11,12,13,14,15,16,17,18,19,20,21,22,23,24,25,0,1,2,3,4,5,6,7,8,9,10,11,12,13,14,15,16,17,18,19,20,21,22,23,24,25,0,1,2,3,4,5,6,7,8,9,10,11,12,13,14,15,16,17,18,19,20,21,22,23,24,25,0,1,2,3,4,5,6,7,8,9,10,11,12,13,14,15,16,17,18,19,20,21,22,23,24,25,0,1,2,3,4,5,6,7,8,9,10,11,12,13,14,15,16,17,18,19,20,21,22,23,24,25,0,1,2,3,4,5,6,7,8,9,10,11,12,13,14,15,16,17,18,19,20,21,22,23,24,25,0,1,2,3,4,5,6,7,8,9,10,11,12,13,14,15,16,17,18,19,20,21,22,23,24,25,0,1,2,3,4,5,6,7,8,9,10,11,12,13,14,15,16,17,18,19,20,21,22,23,24,25,0,1,2,3,4,5,6,7,8,9,10,11,12,13,14,15,16,17,18,19,20,21,22,23,24,25,0,1,2,3,4,5,6,7,8,9,10,11,12,13,14,15,16,17,18,19,20,21,22,23,24,25,0,1,2,3,4,5,6,7,8,9,10,11,12,13,14,15,16,17,18,19,20,21,22,23,24,25,0,1,2,3,4,5,6,7,8,9,10,11,12,13,14,15,16,17,18,19,20,21,22,23,24,25,0,1,2,3,4,5,6,7,8,9,10,11,12,13,14,15,16,17,18,19,20,21,22,23,24,25,0,1,2,3,4,5,6,7,8,9,10,11,12,13,14,15,16,17,18,19,20,21,22,23,24,25,0,1,2,3,4,5,6,7,8,9,10,11,12,13,14,15,16,17,18,19,20,21,22,23,24,25,0,1,2,3,4,5,6,7,8,9,10,11,12,13,14,15,16,17,18,19,20,21,22,23,24,25,0,1,2,3,4,5,6,7,8,9,10,11,12,13,14,15,16,17,18,19,20,21,22,23,24,25,0,1,2,3,4,5,6,7,8,9,10,11,12,13,14,15,16,17,18,19,20,21,22,23,24,25,0,1,2,3,4,5,6,7,8,9,10,11,12,13,14,15,16,17,18,19,20,21,22,23,24,25,0,1,2,3,4,5,6,7,8,9,10,11,12,13,14,15,16,17,18,19,20,21,22,23,24,25,0,1,2,3,4,5,6,7,8,9,10,11,12,13,14,15,16,17,18,19,20,21,22,23,24,25,0,1,2,3,4,5,6,7,8,9,10,11,12,13,14,15,16,17,18,19,20,21,22,23,24,25,0,1,2,3,4,5,6,7,8,9,10,11,12,13,14,15,16,17,18,19,20,21,22,23,24,25,0,1,2,3,4,5,6,7,8,9,10,11,12,13,14,15,16,17,18,19,20,21,22,23,24,25,0,1,2,3,4,5,6,7,8,9,10,11,12,13,14,15,16,17,18,19,20,21,22,23,24,25,0,1,2,3,4,5,6,7,8,9,10,11,12,13,14,15,16,17,18,19,20,21,22,23,24,25,0,1,2,3,4,5,6,7,8,9,10,11,12,13,14,15,16,17,18,19,20,21,22,23,24,25,0,1,2,3,4,5,6,7,8,9,10,11,12,13,14,15,16,17,18,19,20,21,22,23,24,25,0,1,2,3,4,5,6,7,8,9,10,11,12,13,14,15,16,17,18,19,20,21,22,23,24,25,0,1,2,3,4,5,6,7,8,9,10,11,12,13,14,15,16,17,18,19,20,21,22,23,24,25,0,1,2,3,4,5,6,7,8,9,10,11,12,13,14,15,16,17,18,19,20,21,22,23,24,25,0,1,2,3,4,5,6,7,8,9,10,11,12,13,14,15,16,17,18,19,20,21,22,23,24,25,0,1,2,3,4,5,6,7,8,9,10,11,12,13,14,15,16,17,18,19,20,21,22,23,24,25,0,1,2,3,4,5,6,7,8,9,10,11,12,13,14,15,16,17,18,19,20,21,22,23,24,25,0,1,2,3,4,5,6,7,8,9,10,11,12,13,14,15,16,17,18,19,20,21,22,23,24,25,0,1,2,3,4,5,6,7,8,9,10,11,12,13,14,15,16,17,18,19,20,21,22,23,24,25,0,1,2,3,4,5,6,7,8,9,10,11,12,13,14,15,16,17,18,19,20,21,22,23,24,25,0,1,2,3,4,5,6,7,8,9,10,11,12,13,14,15,16,17,18,19,20,21,22,23,24,25,0,1,2,3,4,5,6,7,8,9,10,11,12,13,14,15,16,17,18,19,20,21,22,23,24,25,0,1,2,3,4,5,6,7,8,9,10,11,12,13,14,15,16,17,18,19,20,21,22,23,24,25,0,1,2,3,4,5,6,7,8,9,10,11,12,13,14,15,16,17,18,19,20,21,22,23,24,25,0,1,2,3,4,5,6,7,8,9,10,11,12,13,14,15,16,17,18,19,20,21,22,23,24,25,0,1,2,3,4,5,6,7,8,9,10,11,12,13,14,15,16,17,18,19,20,21,22,23,24,25,0,1,2,3,4,5,6,7,8,9,10,11,12,13,14,15,16,17,18,19,20,21,22,23,24,25,0,1,2,3,4,5,6,7,8,9,10,11,12,13,14,15,16,17,18,19,20,21,22,23,24,25],"trees":[{"base_weights":[9.7527987E-1,7.959403E0,5.935026E-1,-9.420292E-2,1.1401681E1,6.919691E0,4.924217E-1,1.2004504E0,-4.6214616E-1,1.197618E1,-2.645349E-1,6.931079E-1,1.0703084E1,1.5334414E0,-1.8487847E-1,1.7749077E0,-3.5465664E-1,-4.857751E-1,3.1467535E0,1.448877E0,-4.062423E-1,1.0921409E0,-5.148852E-1,6.2873826E0,5.0826406E-1,-1.5697493E-1,1.0895594E1,-4.5503777E-1,7.746348E-1,8.091691E0,-4.8061842E-1,-4.96063E-1,8.390343E0,1.1087419E0,-2.5158495E-1,-4.7769848E-1,8.4433705E-1,2.0117035E0,7.934465E-2],"categories":[],"categories_nodes":[],"categories_segments":[],"categories_sizes":[],"default_left":[1,1,1,1,1,1,1,0,0,0,0,1,0,1,1,0,0,1,1,1,1,0,0,1,1,1,0,1,1,0,0,0,0,0,0,0,0,0,0],"id":0,"left_children":[1,3,5,7,9,11,13,-1,-1,-1,-1,15,-1,17,19,-1,-1,21,23,25,27,-1,-1,29,31,33,-1,35,37,-1,-1,-1,-1,-1,-1,-1,-1,-1,-1],"loss_changes":[1.652794E3,8.920571E2,3.7418982E2,5.611517E0,1.5412671E2,2.0954861E2,4.1084406E2,0E0,0E0,0E0,0E0,5.787113E0,0E0,7.4955865E2,1.2849226E2,0E0,0E0,5.2865257E0,1.0556151E3,6.4522473E2,1.8344349E1,0E0,0E0,7.151948E2,5.62464E2,4.7387257E0,0E0,9.250965E0,1.081584E1,0E0,0E0,0E0,0E0,0E0,0E0,0E0,0E0,0E0,0E0],"parents":[2147483647,0,0,1,1,2,2,3,3,4,4,5,5,6,6,11,11,13,13,14,14,17,17,18,18,19,19,20,20,23,23,24,24,25,25,27,27,28,28],"right_children":[2,4,6,8,10,12,14,-1,-1,-1,-1,16,-1,18,20,-1,-1,22,24,26,28,-1,-1,30,32,34,-1,36,38,-1,-1,-1,-1,-1,-1,-1,-1,-1,-1],"split_conditions":[-7.2707057E-1,8.57615E-1,-1.5456882E0,5.0303227E-1,-1.727811E-1,-1.5485356E0,-3.697443E-1,3.6013514E-1,-1.3864386E-1,3.5928543E0,-7.936047E-2,2.5810146E-1,3.2109253E0,-2.7179706E-1,-1.0590457E0,5.324723E-1,-1.06396995E-1,-6.2794685E-1,5.0475556E-1,-1.0631139E0,1.8828149E0,3.276423E-1,-1.5446556E-1,3.0956018E-1,6.316807E-2,-1.936655E0,3.2686782E0,2.2767491E0,-7.550501E-1,2.4275074E0,-1.4418553E-1,-1.4881891E-1,2.517103E0,3.326226E-1,-7.5475484E-2,-1.4330955E-1,2.533011E-1,6.035111E-1,2.3803396E-2],"split_indices":[9,4,13,4,11,13,9,0,0,0,0,11,0,10,8,0,0,8,4,8,12,0,0,5,7,6,0,5,5,0,0,0,0,0,0,0,0,0,0],"split_type":[0,0,0,0,0,0,0,0,0,0,0,0,0,0,0,0,0,0,0,0,0,0,0,0,0,0,0,0,0,0,0,0,0,0,0,0,0,0,0],"sum_hessian":[6.206361E2,3.1139053E1,5.894971E2,9.615385E0,2.1523668E1,8.210059E0,5.81287E2,1.627219E0,7.988166E0,2.0488167E1,1.035503E0,3.5502958E0,4.6597633E0,2.2862427E2,3.5266272E2,1.4053255E0,2.1449704E0,1.0184911E2,1.26775154E2,4.142012E1,3.112426E2,1.183432E0,1.0066568E2,5.7248524E1,6.952663E1,3.6242603E1,5.177515E0,2.9948227E2,1.1760355E1,4.504438E1,1.2204143E1,6.25E1,7.0266275E0,1.7751479E0,3.4467457E1,2.9497043E2,4.5118346E0,3.5502958E0,8.210059E0],"tree_param":{"num_deleted":"0","num_feature":"14","num_nodes":"39","size_leaf_vector":"0"}},{"base_weights":[2.8194824E-1,-4.0884772E-1,1.2547846E1,7.548222E-1,-4.708787E-1,-7.1468134E-3,1.1189064E0,-4.9518296E-1,3.622146E-1,-4.414656E-1,5.535097E-1,5.0791967E-1,1.6780248E0,-5.042604E-1,7.1315265E-1,1.3163221E-1,1.4174454E0,1.0842648E0,-3.274918E-1,-2.1221053E-2,1.8711194E0,2.6471922E0,5.613346E-1,-5.116098E-1,7.3948884E-1,-3.220721E-1,1.4174454E0,8.086774E-1,-2.6672617E-1,-2.8184283E-1,1.9252948E0,8.586326E-1,-3.175729E-1,2.0056099E-1,3.2593658E0,1.1909937E0,-3.584559E-1,2.2674416E-1,-5.134534E-1,1.6227208E0,-3.1026253E-1,-3.0381304E-1,1.247566E0,2.8127936E-1,-4.5337376E-1],"categories":[],"categories_nodes":[],"categories_segments":[],"categories_sizes":[],"default_left":[1,1,0,1,1,1,1,1,1,0,1,1,1,1,1,1,0,1,0,1,0,1,1,1,1,0,0,1,1,0,0,0,0,0,0,0,0,0,0,0,0,0,0,0,0],"id":1,"left_children":[1,3,-1,5,7,9,11,13,15,-1,17,19,21,23,25,27,-1,29,-1,31,-1,33,35,37,39,-1,-1,41,43,-1,-1,-1,-1,-1,-1,-1,-1,-1,-1,-1,-1,-1,-1,-1,-1],"loss_changes":[5.272397E3,4.290487E1,0E0,8.390537E0,1.1523079E1,2.865262E0,6.134611E0,6.3351593E0,3.8180811E0,0E0,2.759472E0,8.123663E0,9.602404E0,5.326309E0,3.7202184E0,4.155966E0,0E0,4.495928E0,0E0,2.635595E0,0E0,7.158596E0,3.91898E0,8.497772E-1,3.8308723E0,0E0,0E0,3.142459E0,1.1452196E0,0E0,0E0,0E0,0E0,0E0,0E0,0E0,0E0,0E0,0E0,0E0,0E0,0E0,0E0,0E0,0E0],"parents":[2147483647,0,0,1,1,3,3,4,4,5,5,6,6,7,7,8,8,10,10,11,11,12,12,13,13,14,14,15,15,17,17,19,19,21,21,22,22,23,23,24,24,27,27,28,28],"right_children":[2,4,-1,6,8,10,12,14,16,-1,18,20,22,24,26,28,-1,30,-1,32,-1,34,36,38,40,-1,-1,42,44,-1,-1,-1,-1,-1,-1,-1,-1,-1,-1,-1,-1,-1,-1,-1,-1],"split_conditions":[1.4409721E0,-1.5591277E0,3.764354E0,-4.001074E0,1.9587357E0,2.408572E0,-1.0819957E0,2.891735E0,4.5113964E0,-1.3243969E-1,-4.4814243E0,3.9000869E0,1.3669031E0,2.1795273E0,-1.1072272E0,1.0991223E0,4.2523363E-1,-4.8547792E0,-9.824754E-2,-1.4309399E0,5.6133586E-1,-9.876158E-1,6.495719E-2,-3.2166665E0,-1.1026919E0,-9.662163E-2,4.2523363E-1,-8.651365E-2,-3.6414632E-1,-8.4552854E-2,5.7758844E-1,2.575898E-1,-9.527187E-2,6.01683E-2,9.778098E-1,3.572981E-1,-1.0753677E-1,6.802325E-2,-1.5403603E-1,4.8681626E-1,-9.307876E-2,-9.114391E-2,3.742698E-1,8.438381E-2,-1.3601214E-1],"split_indices":[1,4,0,4,13,9,0,12,9,0,4,12,11,6,1,9,0,4,0,6,0,10,5,8,0,0,0,11,6,0,0,0,0,0,0,0,0,0,0,0,0,0,0,0,0],"split_type":[0,0,0,0,0,0,0,0,0,0,0,0,0,0,0,0,0,0,0,0,0,0,0,0,0,0,0,0,0,0,0,0,0,0,0,0,0,0,0,0,0,0,0,0,0],"sum_hessian":[6.206361E2,5.8846155E2,3.2174557E1,2.9215977E1,5.592456E2,9.763314E0,1.9452663E1,5.43787E2,1.545858E1,5.621302E0,4.142012E0,1.0207101E1,9.245563E0,5.4031067E2,3.4763315E0,1.36094675E1,1.8491125E0,2.4408286E0,1.7011834E0,8.06213E0,2.1449704E0,4.215976E0,5.029586E0,5.377219E2,2.5887575E0,1.627219E0,1.8491125E0,4.6597633E0,8.949704E0,1.183432E0,1.2573965E0,1.5532545E0,6.508876E0,1.1094675E0,3.106509E0,2.810651E0,2.218935E0,1.035503E0,5.366864E2,1.1094675E0,1.47929E0,1.4053255E0,3.254438E0,2.1449704E0,6.8047338E0],"tree_param":{"num_deleted":"0","num_feature":"14","num_nodes":"45","size_leaf_vector":"0"}},{"base_weights":[2.674703E-1,-3.367189E-1,4.4095033E-1,-5.061662E-1,2.8753772E-1,4.2576222E0,2.988827E-1,-5.15193E-1,4.27163E-2,6.613372E0,-1.6130336E-1,7.79686E0,-3.4055188E-1,1.318318E-1,1.5185379E0,-2.5420895E-1,1.2093023E0,9.020775E0,-2.8964615E-1,2.2674416E-1,-4.5005968E-1,1.1557931E0,-5.8986504E-2,9.528246E0,8.822022E-1,-3.481098E-1,6.5449154E-1,1.0336485E1,-2.645349E-1,3.8596911E0,-1.2945989E-1,-1.1033509E-1,1.9769995E0,2.2275164E0,1.4452893E-1,7.1802324E-1,-4.2023894E-1,9.217248E0,-1.698373E-1,-4.838528E-1,3.8152173E0,6.179413E-1,-2.3387696E-1,6.3418307E0,1.1976546E-1,-4.699687E-1,4.9854565E0,1.4135642E0,-2.1964958E-1],"categories":[],"categories_nodes":[],"categories_segments":[],"categories_sizes":[],"default_left":[1,1,1,1,1,1,1,0,0,0,1,1,1,1,1,1,0,1,0,0,0,1,1,0,1,1,0,0,0,1,1,1,1,1,1,0,0,0,0,0,0,0,0,0,0,0,0,0,0],"id":2,"left_children":[1,3,5,7,9,11,13,-1,-1,-1,15,17,19,21,23,25,-1,27,-1,-1,-1,29,31,-1,33,35,-1,-1,-1,37,39,41,43,45,47,-1,-1,-1,-1,-1,-1,-1,-1,-1,-1,-1,-1,-1,-1],"loss_changes":[6.530511E1,1.4874119E1,2.6083734E2,5.664005E-1,8.727883E1,2.8374344E2,9.4973816E1,0E0,0E0,0E0,4.042004E0,9.962286E1,6.28259E-1,8.055868E1,2.7792328E2,2.642005E0,0E0,1.0711914E2,0E0,0E0,0E0,2.2554413E2,3.6619587E1,0E0,5.2419247E1,2.323873E0,0E0,0E0,0E0,4.5268692E2,6.456007E1,3.078659E1,6.9105194E1,1.4184471E2,1.6667782E1,0E0,0E0,0E0,0E0,0E0,0E0,0E0,0E0,0E0,0E0,0E0,0E0,0E0,0E0],"parents":[2147483647,0,0,1,1,2,2,3,3,4,4,5,5,6,6,10,10,11,11,12,12,13,13,14,14,15,15,17,17,21,21,22,22,24,24,25,25,29,29,30,30,31,31,32,32,33,33,34,34],"right_children":[2,4,6,8,10,12,14,-1,-1,-1,16,18,20,22,24,26,-1,28,-1,-1,-1,30,32,-1,34,36,-1,-1,-1,38,40,42,44,46,48,-1,-1,-1,-1,-1,-1,-1,-1,-1,-1,-1,-1,-1,-1],"split_conditions":[-8.767346E-1,-2.2192815E-1,-8.050823E-1,1.3479908E0,-2.1721157E-1,-4.6158E-1,6.4401424E-1,-1.545579E-1,1.281489E-2,1.9840117E0,4.28994E0,7.0073783E-1,-1.0548681E0,-5.265142E-1,6.804566E-1,1.026783E0,3.627907E-1,-3.018712E-1,-8.689385E-2,6.802325E-2,-1.3501792E-1,2.708245E-1,1.0049691E0,2.8584738E0,1.9345774E-1,-4.710197E0,1.9634748E-1,3.1009457E0,-7.936047E-2,1.418964E-1,2.2250119E-1,-5.9074944E-1,-9.824632E-2,9.3614817E-1,-2.4945898E0,2.1540698E-1,-1.2607169E-1,2.7651744E0,-5.095119E-2,-1.4515585E-1,1.1445652E0,1.853824E-1,-7.016309E-2,1.9025493E0,3.592964E-2,-1.4099061E-1,1.4956369E0,4.240693E-1,-6.589488E-2],"split_indices":[6,9,7,2,9,9,10,0,0,0,10,8,7,5,10,4,0,11,0,0,0,4,12,0,9,4,0,0,0,11,11,10,5,10,4,0,0,0,0,0,0,0,0,0,0,0,0,0,0],"split_type":[0,0,0,0,0,0,0,0,0,0,0,0,0,0,0,0,0,0,0,0,0,0,0,0,0,0,0,0,0,0,0,0,0,0,0,0,0,0,0,0,0,0,0,0,0,0,0,0,0],"sum_hessian":[6.206361E2,1.3823965E2,4.8239645E2,1.0887574E2,2.9363907E1,1.627219E1,4.6612427E2,1.0717456E2,1.7011834E0,1.035503E0,2.8328403E1,8.801775E0,7.470414E0,4.1094675E2,5.5177517E1,2.72929E1,1.035503E0,7.5443788E0,1.2573965E0,1.035503E0,6.4349113E0,6.3757397E1,3.4718936E2,3.0325444E0,5.214497E1,2.5295858E1,1.9970415E0,6.508876E0,1.035503E0,1.989645E1,4.3860947E1,3.39571E2,7.6183434E0,1.775148E1,3.4393494E1,1.035503E0,2.4260355E1,7.988166E0,1.1908284E1,4.1050297E1,2.810651E0,4.866864E1,2.9090237E2,1.5532545E0,6.0650887E0,9.393492E0,8.357988E0,7.0266275E0,2.7366865E1],"tree_param":{"num_deleted":"0","num_feature":"14","num_nodes":"49","size_leaf_vector":"0"}},{"base_weights":[-5.079029E-1,-5.1911885E-1,-2.886786E-1,-5.034001E-1,2.924119E0],"categories":[],"categories_nodes":[],"categories_segments":[],"categories_sizes":[],"default_left":[1,0,1,0,0],"id":3,"left_children":[1,-1,3,-1,-1],"loss_changes":[1.3786163E0,0E0,2.389847E1,0E0,0E0],"parents":[2147483647,0,0,2,2],"right_children":[2,-1,4,-1,-1],"split_conditions":[1.5362518E0,-1.5573566E-1,1.3131113E0,-1.5102004E-1,8.772357E-1],"split_indices":[10,0,1,0,0],"split_type":[0,0,0,0,0],"sum_hessian":[6.206361E2,5.8912726E2,3.1508877E1,3.0325445E1,1.183432E0],"tree_param":{"num_deleted":"0","num_feature":"14","num_nodes":"5","size_leaf_vector":"0"}},{"base_weights":[2.7873093E-1,1.8445075E0,-1.4036241E-1,2.660614E-1,5.6023026E0,-2.9325005E-1,1.2456076E0,-8.57849E-2,9.301347E0,9.015397E0,-2.884391E-1,-3.9107865E-1,1.65239E0,5.766185E0,-7.012082E-2,5.932566E0,-4.7923806E-1,-4.269068E-1,1.1200798E1,-4.8329157E-1,1.2093023E0,-4.1330707E-1,1.0688114E0,9.0989275E0,1.4505732E-1,7.314452E0,2.1238174E-1,3.9625555E-1,-4.95027E-1,8.526504E-1,9.13884E0,-5.1387876E-1,9.434194E-1,-2.8964615E-1,1.1986746E1,-5.019451E-1,-1.688312E-1,1.8540807E0,1.049156E-1,-2.3247948E-1,7.354662E-1,1.3197967E-1,8.608607E0,-3.0381304E-1,7.1802324E-1,-3.4055188E-1,8.979176E-1,-2.8964615E-1,1.7005813E0,-5.116525E-1,2.0634916E-1,9.520982E0,-4.9704957E-1,2.5131264E0,2.0056099E-1,-3.3262262E-1,5.963302E-1,5.963302E-1,-3.8163212E-1,1.8477156E0,2.0302883E-1,2.2674416E-1,-4.5005968E-1,-3.998633E-1,1.4649839E0],"categories":[],"categories_nodes":[],"categories_segments":[],"categories_sizes":[],"default_left":[1,1,1,1,1,1,1,1,0,1,1,1,1,1,1,1,1,0,1,0,0,1,1,0,1,1,1,1,0,1,0,0,0,0,0,1,1,1,1,1,1,0,0,0,0,1,1,0,0,0,0,0,0,0,0,0,0,0,0,0,0,0,0,0,0],"id":4,"left_children":[1,3,5,7,9,11,13,15,-1,17,19,21,23,25,27,29,31,-1,33,-1,-1,35,37,-1,39,41,43,45,-1,47,-1,-1,-1,-1,-1,49,51,53,55,57,59,-1,-1,-1,-1,61,63,-1,-1,-1,-1,-1,-1,-1,-1,-1,-1,-1,-1,-1,-1,-1,-1,-1,-1],"loss_changes":[4.0818054E2,7.774634E2,1.0447287E2,2.981314E2,7.826166E2,8.502507E1,2.918667E2,2.1836061E2,0E0,5.122982E2,5.020738E0,1.4165077E1,2.390419E2,9.354184E1,7.9135003E0,8.439171E1,4.7405396E0,0E0,1.8416992E2,0E0,0E0,8.957481E0,4.81726E0,0E0,4.3671923E0,7.897333E1,1.1162338E0,7.373563E0,0E0,3.6820316E0,0E0,0E0,0E0,0E0,0E0,2.2077255E0,3.6264685E2,3.4067955E0,1.0654011E0,1.7409992E0,4.1154423E0,0E0,0E0,0E0,0E0,6.28259E-1,9.160008E0,0E0,0E0,0E0,0E0,0E0,0E0,0E0,0E0,0E0,0E0,0E0,0E0,0E0,0E0,0E0,0E0,0E0,0E0],"parents":[2147483647,0,0,1,1,2,2,3,3,4,4,5,5,6,6,7,7,9,9,10,10,11,11,12,12,13,13,14,14,15,15,16,16,18,18,21,21,22,22,24,24,25,25,26,26,27,27,29,29,35,35,36,36,37,37,38,38,39,39,40,40,45,45,46,46],"right_children":[2,4,6,8,10,12,14,16,-1,18,20,22,24,26,28,30,32,-1,34,-1,-1,36,38,-1,40,42,44,46,-1,48,-1,-1,-1,-1,-1,50,52,54,56,58,60,-1,-1,-1,-1,62,64,-1,-1,-1,-1,-1,-1,-1,-1,-1,-1,-1,-1,-1,-1,-1,-1,-1,-1],"split_conditions":[-5.064181E-1,-1.3849394E-1,9.0293896E-1,-5.077957E-1,1.1185953E-2,1.0660112E0,1.8748382E-1,-1.330971E0,2.790404E0,-5.9758466E-1,-7.560927E-1,1.1668339E0,1.0990136E0,1.3738883E0,-9.21369E-1,-1.3413213E0,1.6565831E0,-1.2807204E-1,-7.5532985E-1,-1.4498748E-1,3.627907E-1,4.5802522E-1,1.542083E0,2.7296784E0,1.03198E0,-1.3112827E-1,-9.832651E-1,-2.0151124E0,-1.485081E-1,-9.5843387E-1,2.741652E0,-1.5416363E-1,2.8302583E-1,-8.689385E-2,3.5960238E0,7.57432E-1,4.6317035E-1,-9.8841006E-1,3.9711816E0,-1.2951854E0,-1.2306472E0,3.9593905E-2,2.5825822E0,-9.114391E-2,2.1540698E-1,-1.2705337E0,-1.2721324E0,-8.689385E-2,5.101744E-1,-1.5349576E-1,6.190475E-2,2.8562946E0,-1.4911488E-1,7.5393796E-1,6.01683E-2,-9.978679E-2,1.7889908E-1,1.7889908E-1,-1.1448964E-1,5.5431473E-1,6.090865E-2,6.802325E-2,-1.3501792E-1,-1.19959E-1,4.394952E-1],"split_indices":[13,12,10,13,9,11,13,13,0,7,13,12,11,10,1,13,11,0,4,0,0,8,9,0,5,7,1,4,0,1,0,0,0,0,0,9,8,2,9,0,3,0,0,0,0,3,1,0,0,0,0,0,0,0,0,0,0,0,0,0,0,0,0,0,0],"split_type":[0,0,0,0,0,0,0,0,0,0,0,0,0,0,0,0,0,0,0,0,0,0,0,0,0,0,0,0,0,0,0,0,0,0,0,0,0,0,0,0,0,0,0,0,0,0,0,0,0,0,0,0,0,0,0,0,0,0,0,0,0,0,0,0,0],"sum_hessian":[6.206361E2,1.3032545E2,4.9031067E2,9.252959E1,3.779586E1,4.423077E2,4.800296E1,9.001479E1,2.514793E0,2.3594675E1,1.4201183E1,4.218935E2,2.0414202E1,1.0059172E1,3.7943787E1,4.6597633E0,8.5355034E1,4.5857987E0,1.9008877E1,1.3165681E1,1.035503E0,4.162722E2,5.621302E0,2.5887575E0,1.7825445E1,7.6183434E0,2.4408286E0,1.8121302E1,1.9822485E1,2.2928994E0,2.366864E0,8.394971E1,1.4053255E0,1.2573965E0,1.775148E1,3.0473373E2,1.1153847E2,2.5887575E0,3.0325444E0,1.1242604E1,6.5828404E0,1.3313609E0,6.2869825E0,1.4053255E0,1.035503E0,7.470414E0,1.06508875E1,1.2573965E0,1.035503E0,3.0088757E2,3.846154E0,2.7366865E0,1.0880178E2,1.47929E0,1.1094675E0,1.7751479E0,1.2573965E0,1.2573965E0,9.985208E0,1.3313609E0,5.2514796E0,1.035503E0,6.4349113E0,3.3284025E0,7.3224854E0],"tree_param":{"num_deleted":"0","num_feature":"14","num_nodes":"65","size_leaf_vector":"0"}},{"base_weights":[-5.046856E-1,-5.191255E-1,-1.799641E-1,-4.9982786E-1,2.4374998E0,-2.8184283E-1,4.1569767E0],"categories":[],"categories_nodes":[],"categories_segments":[],"categories_sizes":[],"default_left":[1,0,1,0,1,0,0],"id":5,"left_children":[1,-1,3,-1,5,-1,-1],"loss_changes":[2.8213959E0,0E0,2.4658346E1,0E0,1.622286E1,0E0,0E0],"parents":[2147483647,0,0,2,2,4,4],"right_children":[2,-1,4,-1,6,-1,-1],"split_conditions":[1.6970851E0,-1.5573767E-1,8.228855E-1,-1.4994836E-1,1.127008E0,-8.4552854E-2,1.2470931E0],"split_indices":[5,0,0,0,7,0,0],"split_type":[0,0,0,0,0,0,0],"sum_hessian":[6.206361E2,5.9363904E2,2.6997042E1,2.4778107E1,2.218935E0,1.183432E0,1.035503E0],"tree_param":{"num_deleted":"0","num_feature":"14","num_nodes":"7","size_leaf_vector":"0"}},{"base_weights":[-5.0629425E-1,-5.191384E-1,-7.442367E-2,-4.9101105E-1,3.3821137E0],"categories":[],"categories_nodes":[],"categories_segments":[],"categories_sizes":[],"default_left":[1,0,1,0,0],"id":6,"left_children":[1,-1,3,-1,-1],"loss_changes":[3.4095917E0,0E0,2.9194368E1,0E0,0E0],"parents":[2147483647,0,0,2,2],"right_children":[2,-1,4,-1,-1],"split_conditions":[2.6687996E0,-1.5574153E-1,1.0048677E0,-1.4730333E-1,1.0146341E0],"split_indices":[10,0,3,0,0],"split_type":[0,0,0,0,0],"sum_hessian":[6.206361E2,6.0251483E2,1.8121302E1,1.693787E1,1.183432E0],"tree_param":{"num_deleted":"0","num_feature":"14","num_nodes":"5","size_leaf_vector":"0"}},{"base_weights":[2.9320884E-1,-4.3745974E-1,1.2626455E1,-4.883435E-1,3.705592E-1,-5.0593287E-1,9.682673E-3,1.7961802E-1,2.5501065E0,1.4130431E-1,-5.096196E-1,2.722816E-1,-4.5142412E-1,9.022719E-1,-1.0108391E-1,7.1802324E-1,-3.3262262E-1,-5.1703006E-1,-3.0445826E-1,6.3147664E-1,-4.1887227E-1,-3.9337176E-1,1.5926952E0,-3.0892512E-1,8.677581E-1,-4.862843E-1,1.7035694E-1,-3.5465664E-1,9.8476505E-1,2.9164677E0,6.019242E-1,7.1802324E-1,-3.9634147E-1,-1.05008096E-1,2.1918604E0],"categories":[],"categories_nodes":[],"categories_segments":[],"categories_sizes":[],"default_left":[1,1,0,1,1,1,1,1,0,1,1,1,0,1,1,0,0,0,1,1,0,0,1,1,1,0,0,0,0,0,0,0,0,0,0],"id":7,"left_children":[1,3,-1,5,7,9,11,13,-1,15,17,19,-1,21,23,-1,-1,-1,25,27,-1,-1,29,31,33,-1,-1,-1,-1,-1,-1,-1,-1,-1,-1],"loss_changes":[5.607407E3,2.4349792E1,0E0,4.8530426E0,1.4271498E1,1.3475952E0,2.5278E0,6.9106975E0,0E0,1.280368E0,6.5104675E-1,3.5609179E0,0E0,9.129969E0,5.3248444E0,0E0,0E0,0E0,1.8932966E0,3.5321722E0,0E0,0E0,6.637686E0,2.2069798E0,6.2816753E0,0E0,0E0,0E0,0E0,0E0,0E0,0E0,0E0,0E0,0E0],"parents":[2147483647,0,0,1,1,3,3,4,4,5,5,6,6,7,7,9,9,10,10,11,11,13,13,14,14,18,18,19,19,22,22,23,23,24,24],"right_children":[2,4,-1,6,8,10,12,14,-1,16,18,20,-1,22,24,-1,-1,-1,26,28,-1,-1,30,32,34,-1,-1,-1,-1,-1,-1,-1,-1,-1,-1],"split_conditions":[1.8299639E0,1.5987737E0,3.7879367E0,1.5335172E0,1.695547E0,-9.572233E-1,-9.5595706E-1,-1.006634E0,7.65032E-1,-4.0463212E-1,5.556127E-1,2.2061417E0,-1.3542724E-1,7.7056134E-1,2.606832E0,2.1540698E-1,-9.978679E-2,-1.5510902E-1,5.785881E-1,-6.156547E-1,-1.2566169E-1,-1.18011534E-1,-1.1810241E0,-2.382537E0,3.9285479E0,-1.4588529E-1,5.1107086E-2,-1.06396995E-1,2.9542953E-1,8.7494034E-1,1.8057726E-1,2.1540698E-1,-1.18902445E-1,-3.150243E-2,6.5755814E-1],"split_indices":[3,11,0,9,4,11,3,10,0,9,9,10,0,7,5,0,0,0,3,11,0,0,2,12,7,0,0,0,0,0,0,0,0,0,0],"split_type":[0,0,0,0,0,0,0,0,0,0,0,0,0,0,0,0,0,0,0,0,0,0,0,0,0,0,0,0,0,0,0,0,0,0,0],"sum_hessian":[6.206361E2,5.8683435E2,3.3801777E1,5.5244086E2,3.4393494E1,5.335799E2,1.8860947E1,3.2618343E1,1.7751479E0,2.810651E0,5.307692E2,1.2278107E1,6.5828404E0,8.505918E0,2.4112427E1,1.035503E0,1.7751479E0,5.1079883E2,1.9970415E1,8.136095E0,4.142012E0,3.106509E0,5.3994083E0,2.0414202E1,3.698225E0,1.4423078E1,5.5473375E0,2.1449704E0,5.9911246E0,1.47929E0,3.9201183E0,1.035503E0,1.9378698E1,2.6627219E0,1.035503E0],"tree_param":{"num_deleted":"0","num_feature":"14","num_nodes":"35","size_leaf_vector":"0"}},{"base_weights":[2.562097E-1,2.490455E0,-2.929103E-1,8.76511E0,1.1475565E0,-4.6605167E-1,2.5592807E-1,1.1602552E1,-4.337586E-1,5.3013167E0,3.719259E-2,2.6540455E-1,-4.9668458E-1,9.4507265E0,-3.197955E-2,1.1546444E1,-3.9584342E-1,-4.2458144E-1,9.396039E0,-3.025815E-1,6.378233E-1,3.7356317E-1,-5.102289E-1,-4.3662053E-1,2.4487405E0,-4.7360086E-1,2.2674416E-1,-4.6188375E-1,1.2093023E0,-4.3268755E-1,2.2674416E-1,1.5864928E0,-2.6477894E-1,-3.977747E-1,1.368421E0,-5.12919E-1,-2.3662439E-1,-5.046009E-1,1.159947E0,9.776229E0,1.042705E-1,1.5439427E-1,-4.8641723E-1,7.5318635E-2,2.2467754E0,2.2674416E-1,-4.143115E-1,-3.9337176E-1,1.5334205E-1,2.2674416E-1,-5.1467603E-1,-2.9695433E-1,1.8711194E0,-8.233641E-2,1.2093023E0],"categories":[],"categories_nodes":[],"categories_segments":[],"categories_sizes":[],"default_left":[1,1,1,1,1,1,1,0,0,1,1,1,1,0,1,0,1,1,0,1,1,1,1,1,1,0,0,1,0,0,0,1,1,0,0,0,1,1,1,0,1,0,0,0,0,0,0,0,0,0,0,0,0,0,0],"id":8,"left_children":[1,3,5,7,9,11,13,-1,-1,15,17,19,21,-1,23,-1,25,27,-1,29,31,33,35,37,39,-1,-1,41,-1,-1,-1,43,45,-1,-1,-1,47,49,51,-1,53,-1,-1,-1,-1,-1,-1,-1,-1,-1,-1,-1,-1,-1,-1],"loss_changes":[7.633954E2,1.0242233E3,4.7622185E1,5.659011E2,4.7143304E2,8.654495E0,3.1936667E2,0E0,0E0,7.7174023E2,3.5704956E2,3.5649357E0,4.4978104E0,0E0,1.19381096E2,0E0,7.0006084E-1,5.361882E0,0E0,5.795774E-1,8.939715E0,5.2847724E0,1.437912E-1,1.16758175E1,2.8553574E2,0E0,0E0,1.2510166E0,0E0,0E0,0E0,4.813881E0,5.316732E-1,0E0,0E0,0E0,3.8819575E-1,8.440113E-1,5.193599E0,0E0,2.9138625E0,0E0,0E0,0E0,0E0,0E0,0E0,0E0,0E0,0E0,0E0,0E0,0E0,0E0,0E0],"parents":[2147483647,0,0,1,1,2,2,3,3,4,4,5,5,6,6,9,9,10,10,11,11,12,12,14,14,16,16,17,17,19,19,20,20,21,21,22,22,23,23,24,24,27,27,31,31,32,32,36,36,37,37,38,38,40,40],"right_children":[2,4,6,8,10,12,14,-1,-1,16,18,20,22,-1,24,-1,26,28,-1,30,32,34,36,38,40,-1,-1,42,-1,-1,-1,44,46,-1,-1,-1,48,50,52,-1,54,-1,-1,-1,-1,-1,-1,-1,-1,-1,-1,-1,-1,-1,-1],"split_conditions":[-5.0931644E-1,-6.627025E-1,5.320325E-1,1.5155582E-1,-8.62774E-1,-1.8435948E0,5.3426677E-1,3.4807658E0,-1.3012758E-1,-3.2984012E-1,-5.4147255E-1,-2.4172235E0,-2.9885216E0,2.835218E0,3.2958698E-1,3.4639332E0,2.1834896E0,1.390373E0,2.818812E0,-8.661541E-1,-9.2776835E-1,2.9738133E0,5.1891613E-1,1.7636918E0,3.7170604E-1,-1.4208026E-1,6.802325E-2,-1.3940043E0,3.627907E-1,-1.2980627E-1,6.802325E-2,-1.1451137E0,-1.2743807E0,-1.1933241E-1,4.105263E-1,-1.5387571E-1,2.9331636E-1,-9.41943E-1,-1.1352439E0,2.9328687E0,4.961675E0,4.631828E-2,-1.4592518E-1,2.2595592E-2,6.740326E-1,6.802325E-2,-1.24293454E-1,-1.18011534E-1,4.600262E-2,6.802325E-2,-1.5440282E-1,-8.90863E-2,5.6133586E-1,-2.4700925E-2,3.627907E-1],"split_indices":[13,9,8,10,12,4,8,0,0,9,13,8,8,0,12,0,5,4,0,0,8,9,8,11,12,0,0,8,0,0,0,2,0,0,0,0,2,7,3,0,12,0,0,0,0,0,0,0,0,0,0,0,0,0,0],"split_type":[0,0,0,0,0,0,0,0,0,0,0,0,0,0,0,0,0,0,0,0,0,0,0,0,0,0,0,0,0,0,0,0,0,0,0,0,0,0,0,0,0,0,0,0,0,0,0,0,0,0,0,0,0,0,0],"sum_hessian":[6.206361E2,1.2174557E2,4.9889053E2,2.0488167E1,1.012574E2,3.7936392E2,1.1952663E2,1.545858E1,5.029586E0,2.056213E1,8.069527E1,1.4940828E1,3.644231E2,2.6627219E0,1.1686391E2,9.319527E0,1.1242604E1,7.781065E1,2.8846154E0,5.9911246E0,8.949704E0,5.177515E0,3.5924557E2,1.0118343E2,1.5680473E1,1.0207101E1,1.035503E0,7.677515E1,1.035503E0,4.9556212E0,1.035503E0,3.994083E0,4.9556212E0,3.254438E0,1.923077E0,3.5488165E2,4.3639054E0,9.77071E1,3.4763315E0,3.0325444E0,1.2647929E1,2.7366865E0,7.403846E1,1.5532545E0,2.4408286E0,1.035503E0,3.9201183E0,3.106509E0,1.2573965E0,1.035503E0,9.66716E1,1.3313609E0,2.1449704E0,1.1612427E1,1.035503E0],"tree_param":{"num_deleted":"0","num_feature":"14","num_nodes":"55","size_leaf_vector":"0"}},{"base_weights":[-5.0629425E-1,-5.1256067E-1,-2.1973273E-1,-5.1908726E-1,-4.0371442E-1,-4.829042E-1,1.7005813E0,-5.0533867E-1,5.0672036E-1,1.7005813E0,-3.6555362E-1],"categories":[],"categories_nodes":[],"categories_segments":[],"categories_sizes":[],"default_left":[1,1,1,0,1,0,0,0,1,0,0],"id":9,"left_children":[1,3,5,-1,7,-1,-1,-1,9,-1,-1],"loss_changes":[1.0036621E0,2.2206116E-1,8.428709E0,0E0,3.8523889E0,0E0,0E0,0E0,5.2061634E0,0E0,0E0],"parents":[2147483647,0,0,1,1,2,2,4,4,8,8],"right_children":[2,4,6,-1,8,-1,-1,-1,10,-1,-1],"split_conditions":[2.191626E0,1.1880441E0,2.4762144E-2,-1.5572618E-1,8.239372E-1,-1.4487126E-1,5.101744E-1,-1.5160161E-1,6.596209E-1,5.101744E-1,-1.0966609E-1],"split_indices":[5,7,0,0,1,0,0,0,0,0,0],"split_type":[0,0,0,0,0,0,0,0,0,0,0],"sum_hessian":[6.206361E2,6.065829E2,1.4053255E1,5.68713E2,3.7869823E1,1.3017752E1,1.035503E0,3.4467457E1,3.4023669E0,1.035503E0,2.366864E0],"tree_param":{"num_deleted":"0","num_feature":"14","num_nodes":"11","size_leaf_vector":"0"}},{"base_weights":[2.8033957E-1,3.9580278E0,-9.599978E-2,-3.5417345E-1,7.5668354E0,1.1085E0,-3.179803E-1,-4.617043E-1,1.0921409E0,9.297158E0,-4.405784E-1,5.000352E-1,1.0542505E1,-4.6504718E-1,2.0624487E-1,2.2674416E-1,-4.9923196E-1,-2.1106435E-1,1.1000537E1,3.1965637E0,-1.3467741E-1,-4.782221E-1,1.368421E0,1.0703084E1,-3.8574535E-1,2.2674416E-1,-3.8613862E-1,1.2340537E1,-3.6208448E-1,3.9613985E-2,9.457805E0,-3.527394E-1,8.372679E-1,-4.8350412E-1,7.1802324E-1,-5.1416814E-1,5.5828214E-1,1.0181367E0,-3.5226902E-1,-4.523539E-1,5.8853114E-1,1.5926952E0,8.195426E-2,7.1802324E-1,-4.8881575E-1,1.4158415E0,1.5537845E-1],"categories":[],"categories_nodes":[],"categories_segments":[],"categories_sizes":[],"default_left":[1,1,1,1,1,1,1,1,0,1,0,1,0,1,1,0,0,1,1,1,1,1,0,0,1,0,0,0,0,1,0,1,1,1,0,0,1,0,0,0,0,0,0,0,0,0,0],"id":10,"left_children":[1,3,5,7,9,11,13,15,-1,17,-1,19,-1,21,23,-1,-1,25,27,29,31,33,-1,-1,35,-1,-1,-1,-1,37,-1,39,41,43,-1,-1,45,-1,-1,-1,-1,-1,-1,-1,-1,-1,-1],"loss_changes":[8.6076086E2,9.010808E2,1.5139432E2,4.743409E0,4.401725E2,5.0061847E2,3.693054E1,7.868409E-1,0E0,4.222229E2,0E0,1.4392479E2,0E0,9.674454E0,6.5886273E2,0E0,0E0,4.6467686E-1,3.3952832E2,3.1618048E2,1.48825E1,2.6944504E0,0E0,0E0,1.2495885E1,0E0,0E0,0E0,0E0,4.8263826E0,0E0,5.6030154E0,7.2347393E0,2.7152252E0,0E0,0E0,4.1122212E0,0E0,0E0,0E0,0E0,0E0,0E0,0E0,0E0,0E0,0E0],"parents":[2147483647,0,0,1,1,2,2,3,3,4,4,5,5,6,6,7,7,9,9,11,11,13,13,14,14,17,17,18,18,19,19,20,20,21,21,24,24,29,29,31,31,32,32,33,33,36,36],"right_children":[2,4,6,8,10,12,14,16,-1,18,-1,20,-1,22,24,-1,-1,26,28,30,32,34,-1,-1,36,-1,-1,-1,-1,38,-1,40,42,44,-1,-1,46,-1,-1,-1,-1,-1,-1,-1,-1,-1,-1],"split_conditions":[-8.138276E-1,1.1110394E-1,-6.94654E-1,1.0548418E0,-3.246504E-1,-6.9542515E-1,7.4708617E-1,-4.065343E-1,3.276423E-1,-4.2926466E-1,-1.3217352E-1,-1.060962E-1,3.1627517E0,3.9540925E0,7.514645E-1,6.802325E-2,-1.4976959E-1,-1.8185124E-1,-5.6568336E-2,-1.6424459E-1,2.7179205E0,2.8144948E0,4.105263E-1,3.2109253E0,9.962979E-2,6.802325E-2,-1.1584159E-1,3.7021613E0,-1.08625345E-1,1.074212E0,2.8373415E0,3.7665727E0,4.0472164E0,-2.5032105E0,2.1540698E-1,-1.5425044E-1,-3.1256557E-2,3.0544102E-1,-1.0568071E-1,-1.3570617E-1,1.7655934E-1,4.778086E-1,2.458628E-2,2.1540698E-1,-1.4664473E-1,4.2475244E-1,4.6613537E-2],"split_indices":[7,8,4,13,13,4,4,4,0,13,0,9,0,12,4,0,0,4,12,9,11,6,0,0,9,0,0,0,0,8,0,9,11,5,0,0,13,0,0,0,0,0,0,0,0,0,0],"split_type":[0,0,0,0,0,0,0,0,0,0,0,0,0,0,0,0,0,0,0,0,0,0,0,0,0,0,0,0,0,0,0,0,0,0,0,0,0,0,0,0,0,0,0,0,0,0,0],"sum_hessian":[6.206361E2,5.673077E1,5.6390533E2,2.6257397E1,3.0473373E1,8.713018E1,4.7677515E2,2.5073965E1,1.183432E0,2.4926037E1,5.5473375E0,8.284024E1,4.289941E0,3.7241125E2,1.0436391E2,1.035503E0,2.4038462E1,3.9201183E0,2.1005919E1,1.5014793E1,6.782545E1,3.704882E2,1.923077E0,4.6597633E0,9.970415E1,1.035503E0,2.8846154E0,1.8713018E1,2.2928994E0,1.06508875E1,4.3639054E0,5.591716E1,1.1908284E1,3.6945267E2,1.035503E0,8.816568E1,1.1538462E1,2.5887575E0,8.06213E0,5.1035503E1,4.881657E0,5.3994083E0,6.508876E0,1.035503E0,3.6841718E2,2.8846154E0,8.653847E0],"tree_param":{"num_deleted":"0","num_feature":"14","num_nodes":"47","size_leaf_vector":"0"}},{"base_weights":[-5.079029E-1,-5.141811E-1,-2.6486307E-1,-5.190813E-1,-4.3179125E-1,-4.8882583E-1,1.7005813E0,-5.0633603E-1,7.154724E-1],"categories":[],"categories_nodes":[],"categories_segments":[],"categories_sizes":[],"default_left":[1,1,1,0,1,0,0,0,0],"id":11,"left_children":[1,3,5,-1,7,-1,-1,-1,-1],"loss_changes":[8.1233215E-1,2.0080566E-2,8.62962E0,0E0,3.7750735E0,0E0,0E0,0E0,0E0],"parents":[2147483647,0,0,1,1,2,2,4,4],"right_children":[2,4,6,-1,8,-1,-1,-1,-1],"split_conditions":[1.9789438E0,1.0290478E0,8.0278516E-1,-1.5572439E-1,1.0258186E0,-1.4664775E-1,5.101744E-1,-1.5190081E-1,2.1464173E-1],"split_indices":[5,9,1,0,1,0,0,0,0],"split_type":[0,0,0,0,0,0,0,0,0],"sum_hessian":[6.206361E2,6.039201E2,1.6715977E1,5.6501483E2,3.8905327E1,1.5680473E1,1.035503E0,3.7056213E1,1.8491125E0],"tree_param":{"num_deleted":"0","num_feature":"14","num_nodes":"9","size_leaf_vector":"0"}},{"base_weights":[-5.079029E-1,-5.1912975E-1,-2.2054668E-1,-4.9813387E-1,2.7055836E0],"categories":[],"categories_nodes":[],"categories_segments":[],"categories_sizes":[],"default_left":[1,0,1,0,0],"id":12,"left_children":[1,-1,3,-1,-1],"loss_changes":[1.890976E0,0E0,2.174547E1,0E0,0E0],"parents":[2147483647,0,0,2,2],"right_children":[2,-1,4,-1,-1],"split_conditions":[2.6532648E0,-1.5573893E-1,-8.033061E-2,-1.4944017E-1,8.1167513E-1],"split_indices":[7,0,2,0,0],"split_type":[0,0,0,0,0],"sum_hessian":[6.206361E2,5.965237E2,2.4112427E1,2.2781065E1,1.3313609E0],"tree_param":{"num_deleted":"0","num_feature":"14","num_nodes":"5","size_leaf_vector":"0"}},{"base_weights":[-5.046856E-1,-5.1912814E-1,-1.5694462E-1,-4.9935395E-1,4.1569767E0],"categories":[],"categories_nodes":[],"categories_segments":[],"categories_sizes":[],"default_left":[1,0,1,0,0],"id":13,"left_children":[1,-1,3,-1,-1],"loss_changes":[3.0405426E0,0E0,4.080886E1,0E0,0E0],"parents":[2147483647,0,0,2,2],"right_children":[2,-1,4,-1,-1],"split_conditions":[2.5408764E0,-1.5573844E-1,-5.201672E-1,-1.4980619E-1,1.2470931E0],"split_indices":[11,0,0,0,0],"split_type":[0,0,0,0,0],"sum_hessian":[6.206361E2,5.9541425E2,2.5221893E1,2.4186392E1,1.035503E0],"tree_param":{"num_deleted":"0","num_feature":"14","num_nodes":"5","size_leaf_vector":"0"}},{"base_weights":[2.4816641E-1,-4.8707595E-1,2.0321233E0,-5.0491744E-1,3.5583937E-1,5.8154874E0,1.1671826E0,4.3918914E-1,-5.095045E-1,1.4187816E0,1.8322732E-2,1.5181589E0,1.0635022E1,6.2001E-1,4.535489E0,-5.1405144E-1,-2.0604499E-1,-4.1887227E-1,5.4241997E-1,-1.753187E-1,8.108911E0,1.1348869E1,6.7461425E-1,9.052111E0,3.9669013E-1,1.0756898E1,2.0098585E-1,-5.1635987E-1,-3.0485764E-1,3.4210524E-1,-4.348037E-1,-3.3262262E-1,1.3031025E0,9.434194E-1,-3.4750912E-1,-1.8192942E-1,2.3641193E0,-3.175729E-1,7.525408E-1,-5.187379E-1,-2.8784457E-1,-4.337586E-1,2.2674416E-1,-4.7778046E-1,2.4528298E-1,3.4164195E0,-4.500127E-1,4.678799E-1,7.1281214E0,2.2674416E-1,-4.3967095E-1,1.4158415E0,-1.2111803E-1],"categories":[],"categories_nodes":[],"categories_segments":[],"categories_sizes":[],"default_left":[1,1,1,1,1,1,1,0,1,0,1,1,1,1,1,1,1,0,1,1,0,0,0,0,1,0,1,1,1,0,0,0,0,0,1,1,1,1,1,0,0,0,0,0,0,0,0,0,0,0,0,0,0],"id":14,"left_children":[1,3,5,7,9,11,13,-1,15,-1,17,19,21,23,25,27,29,-1,31,33,-1,-1,-1,-1,35,-1,37,39,41,-1,-1,-1,-1,-1,43,45,47,49,51,-1,-1,-1,-1,-1,-1,-1,-1,-1,-1,-1,-1,-1,-1],"loss_changes":[8.163531E2,6.8120346E0,5.875472E2,2.0958633E0,3.4639602E0,6.7859607E2,2.7194342E2,0E0,4.8831177E-1,0E0,2.1511059E0,2.1236345E2,1.0358301E2,2.40081E2,5.553629E2,4.7157288E-2,1.1552407E0,0E0,3.2653215E0,3.4128723E0,0E0,0E0,0E0,0E0,1.4513063E2,0E0,4.0155516E0,7.759094E-2,5.8248013E-1,0E0,0E0,0E0,0E0,0E0,1.2453902E0,9.718405E1,2.5826764E2,5.9873307E-1,4.051381E0,0E0,0E0,0E0,0E0,0E0,0E0,0E0,0E0,0E0,0E0,0E0,0E0,0E0,0E0],"parents":[2147483647,0,0,1,1,2,2,3,3,4,4,5,5,6,6,8,8,10,10,11,11,12,12,13,13,14,14,15,15,16,16,18,18,19,19,24,24,26,26,27,27,28,28,34,34,35,35,36,36,37,37,38,38],"right_children":[2,4,6,8,10,12,14,-1,16,-1,18,20,22,24,26,28,30,-1,32,34,-1,-1,-1,-1,36,-1,38,40,42,-1,-1,-1,-1,-1,44,46,48,50,52,-1,-1,-1,-1,-1,-1,-1,-1,-1,-1,-1,-1,-1,-1],"split_conditions":[9.015037E-2,1.6508869E0,-1.0880239E0,-3.3534846E0,2.1776764E0,7.210232E-1,6.473662E-1,1.3175675E-1,8.423673E-1,4.256345E-1,1.9119015E0,-1.1588176E0,-2.2246426E-1,9.190071E-2,4.1504258E-1,8.396895E-1,-3.9774102E-1,-1.2566169E-1,-1.0821406E0,-8.367369E-1,2.4326732E0,3.404661E0,2.0238428E-1,2.7156334E0,8.8910735E-1,3.2270696E0,1.6287344E0,1.6638325E0,-4.1173118E-1,1.0263158E-1,-1.3044111E-1,-9.978679E-2,3.9093077E-1,2.8302583E-1,-1.3667722E0,-5.889176E-1,1.5907839E-1,-3.7830396E0,1.38378E0,-1.5562138E-1,-8.635338E-2,-1.3012758E-1,6.802325E-2,-1.4333415E-1,7.35849E-2,1.024926E0,-1.3500382E-1,1.4036398E-1,2.1384366E0,6.802325E-2,-1.319013E-1,4.2475244E-1,-3.6335412E-2],"split_indices":[13,7,6,4,7,4,8,0,12,0,11,6,9,13,13,9,8,0,2,11,0,0,0,0,13,0,7,5,13,0,0,0,0,0,6,9,8,4,6,0,0,0,0,0,0,0,0,0,0,0,0,0,0],"split_type":[0,0,0,0,0,0,0,0,0,0,0,0,0,0,0,0,0,0,0,0,0,0,0,0,0,0,0,0,0,0,0,0,0,0,0,0,0,0,0,0,0,0,0,0,0,0,0,0,0,0,0,0,0],"sum_hessian":[6.206361E2,4.400148E2,1.806213E2,4.31287E2,8.727811E0,3.254438E1,1.4807692E2,1.627219E0,4.2965976E2,1.3313609E0,7.39645E0,1.7899408E1,1.4644971E1,1.2840237E2,1.9674557E1,4.2263315E2,7.0266275E0,4.142012E0,3.254438E0,1.5014793E1,2.8846154E0,1.3535503E1,1.1094675E0,2.2928994E0,1.26109474E2,7.470414E0,1.2204143E1,4.1656805E2,6.0650887E0,1.923077E0,5.1035504E0,1.7751479E0,1.47929E0,1.4053255E0,1.36094675E1,9.815089E1,2.795858E1,6.508876E0,5.6952662E0,4.1102072E2,5.5473375E0,5.029586E0,1.035503E0,1.1316568E1,2.2928994E0,5.9911246E0,9.215977E1,2.0784023E1,7.1745563E0,1.035503E0,5.473373E0,2.8846154E0,2.810651E0],"tree_param":{"num_deleted":"0","num_feature":"14","num_nodes":"53","size_leaf_vector":"0"}},{"base_weights":[2.7390495E-1,-4.2238268E-1,1.255085E1,-4.7876352E-1,2.8505325E-1,5.3177494E-1,-4.930621E-1,1.0398884E0,-5.6479063E-2,1.4534161E0,-2.326622E-1,7.1802324E-1,-4.9672785E-1,-1.2111803E-1,1.3479666E0,1.4174454E0,-1.9702902E-1,-3.0381304E-1,2.606396E0,-3.977747E-1,2.2674416E-1,-5.0040776E-1,7.1802324E-1,-3.3262262E-1,2.2674416E-1,2.2921911E-1,1.8842874E0,-4.492634E-1,4.2791304E-1,-5.040402E-1,9.3659915E-2,-3.7802908E-1,1.2093023E0,2.2957594E0,3.8805968E-1,2.2674416E-1,-4.9457544E-1,1.3833443E0,-4.2565754E-1],"categories":[],"categories_nodes":[],"categories_segments":[],"categories_sizes":[],"default_left":[1,1,0,1,1,1,1,1,1,1,1,0,1,1,1,0,1,0,0,0,0,1,0,0,0,1,1,1,1,0,0,0,0,0,0,0,0,0,0],"id":15,"left_children":[1,3,-1,5,7,9,11,13,15,17,19,-1,21,23,25,-1,27,-1,-1,-1,-1,29,-1,-1,-1,31,33,35,37,-1,-1,-1,-1,-1,-1,-1,-1,-1,-1],"loss_changes":[5.3192236E3,2.3638802E1,0E0,8.1532135E0,1.1433229E1,6.0453186E0,2.7496643E0,5.0977745E0,6.768658E0,8.512426E0,4.9145478E-1,0E0,2.7641602E0,3.5578674E-1,6.159292E0,0E0,4.838655E0,0E0,0E0,0E0,0E0,1.2058868E0,0E0,0E0,0E0,3.2533178E0,3.5953808E0,7.703519E-1,7.9189315E0,0E0,0E0,0E0,0E0,0E0,0E0,0E0,0E0,0E0,0E0],"parents":[2147483647,0,0,1,1,3,3,4,4,5,5,6,6,7,7,8,8,9,9,10,10,12,12,13,13,14,14,16,16,21,21,25,25,26,26,27,27,28,28],"right_children":[2,4,-1,6,8,10,12,14,16,18,20,-1,22,24,26,-1,28,-1,-1,-1,-1,30,-1,-1,-1,32,34,36,38,-1,-1,-1,-1,-1,-1,-1,-1,-1,-1],"split_conditions":[1.6881912E0,1.1724327E0,3.7652552E0,-3.024613E0,-1.164041E0,1.775511E0,-1.0558269E0,-1.6295252E0,-1.2911801E0,1.442602E-1,-9.9758804E-1,2.1540698E-1,2.5551734E0,-9.9143404E-1,-7.4312556E-1,4.2523363E-1,2.1996088E0,-9.114391E-2,7.819188E-1,-1.1933241E-1,6.802325E-2,2.440917E0,2.1540698E-1,-9.978679E-2,6.802325E-2,-1.2425673E0,3.564889E0,-1.3068373E0,1.4112282E0,-1.5121207E-1,2.8097976E-2,-1.1340873E-1,3.627907E-1,6.8872786E-1,1.1641791E-1,6.802325E-2,-1.4837264E-1,4.150033E-1,-1.2769727E-1],"split_indices":[0,11,0,4,3,9,7,10,1,10,2,0,8,0,5,0,12,0,0,0,0,6,0,0,0,3,12,0,7,0,0,0,0,0,0,0,0,0,0],"split_type":[0,0,0,0,0,0,0,0,0,0,0,0,0,0,0,0,0,0,0,0,0,0,0,0,0,0,0,0,0,0,0,0,0,0,0,0,0,0,0],"sum_hessian":[6.206361E2,5.882397E2,3.239645E1,5.4511835E2,4.3121304E1,7.1005917E0,5.3801776E2,1.2795858E1,3.0325445E1,2.810651E0,4.289941E0,1.035503E0,5.3698224E2,2.810651E0,9.985208E0,1.8491125E0,2.8476332E1,1.4053255E0,1.4053255E0,3.254438E0,1.035503E0,5.359468E2,1.035503E0,1.7751479E0,1.035503E0,3.698225E0,6.2869825E0,2.0488167E1,7.988166E0,5.328403E2,3.106509E0,2.6627219E0,1.035503E0,4.5118346E0,1.7751479E0,1.035503E0,1.9452663E1,3.4763315E0,4.5118346E0],"tree_param":{"num_deleted":"0","num_feature":"14","num_nodes":"39","size_leaf_vector":"0"}},{"base_weights":[2.7873093E-1,1.0580267E0,-2.5830442E-1,6.9547954E0,6.8338305E-1,7.244456E-1,-4.721605E-1,2.3765968E-2,1.0912291E1,4.9434298E-1,1.0188739E1,-9.341839E-2,1.0471807E1,-4.9752137E-1,6.9148906E-2,-4.243743E-1,1.2093023E0,2.6873034E-1,7.850613E0,1.1254704E0,-3.0562133E-1,-5.0436085E-1,7.1802324E-1,9.857819E-1,-3.7478802E-1,-4.6088314E-1,1.474008E0,1.0507657E1,2.7718527E-2,1.5884243E0,-3.506744E-1,1.2248614E0,-4.117647E-1,-5.0777704E-1,2.2674416E-1,1.4534161E0,-2.8184283E-1,-4.6486828E-1,2.2674416E-1,-5.0150883E-1,2.1753678E-1,1.0507657E1,8.8716584E-1,1.9180326E0,1.1193109E-1,-2.9695433E-1,2.190652E0,-4.6754527E-1,3.6920774E-1,-2.734923E-1,2.263965E0],"categories":[],"categories_nodes":[],"categories_segments":[],"categories_sizes":[],"default_left":[1,1,1,1,1,1,1,1,0,1,0,1,0,1,1,0,0,1,1,1,1,1,0,1,1,1,1,0,0,1,0,1,1,0,0,1,0,0,0,0,0,0,0,0,0,0,0,0,0,0,0],"id":16,"left_children":[1,3,5,7,9,11,13,15,-1,17,-1,19,-1,21,23,-1,-1,25,27,29,31,33,-1,35,37,39,41,-1,-1,43,-1,45,47,-1,-1,49,-1,-1,-1,-1,-1,-1,-1,-1,-1,-1,-1,-1,-1,-1,-1],"loss_changes":[2.6043384E2,5.5596234E2,7.785701E1,4.1264417E2,4.2578174E2,5.296077E2,4.2010803E0,3.952413E0,0E0,3.897928E2,0E0,1.6424E1,0E0,2.7735443E0,6.2542534E0,0E0,0E0,2.030632E2,1.4502472E2,7.002694E0,9.233913E0,8.369827E-1,0E0,3.3700504E0,6.7259765E-1,4.0812626E0,4.5200314E2,0E0,0E0,3.3676262E0,0E0,6.1425376E0,2.3943377E0,0E0,0E0,5.9531107E0,0E0,0E0,0E0,0E0,0E0,0E0,0E0,0E0,0E0,0E0,0E0,0E0,0E0,0E0,0E0],"parents":[2147483647,0,0,1,1,2,2,3,3,4,4,5,5,6,6,7,7,9,9,11,11,13,13,14,14,17,17,18,18,19,19,20,20,21,21,23,23,24,24,25,25,26,26,29,29,31,31,32,32,35,35],"right_children":[2,4,6,8,10,12,14,16,-1,18,-1,20,-1,22,24,-1,-1,26,28,30,32,34,-1,36,38,40,42,-1,-1,44,-1,46,48,-1,-1,50,-1,-1,-1,-1,-1,-1,-1,-1,-1,-1,-1,-1,-1,-1,-1],"split_conditions":[-2.5645643E-1,-1.257442E0,-6.367448E-1,3.140018E-1,-2.5845253E-1,-6.4574957E-1,1.0952837E0,2.6296053E0,3.2736874E0,2.1716924E0,3.0566218E0,-1.8226324E0,3.1415422E0,1.7998528E0,-1.1921998E0,-1.273123E-1,3.627907E-1,3.6416423E-1,2.2042723E0,3.410579E0,-6.461008E-1,1.6419051E0,2.1540698E-1,6.10371E-1,1.7514732E0,6.9570667E-1,3.6733878E-1,3.1522973E0,8.315559E-3,-1.7761261E0,-1.05202325E-1,-3.336901E-1,4.2103834E0,-1.5233311E-1,6.802325E-2,-1.9350574E0,-8.4552854E-2,-1.3946049E-1,6.802325E-2,-1.5045266E-1,6.5261036E-2,3.1522973E0,2.6614976E-1,5.754098E-1,3.357933E-2,-8.90863E-2,6.5719557E-1,-1.4026359E-1,1.1076233E-1,-8.204769E-2,6.791895E-1],"split_indices":[12,6,4,4,12,4,13,9,0,8,0,8,0,8,0,0,0,8,8,10,11,4,0,8,8,9,8,0,0,4,0,6,9,0,0,8,0,0,0,0,0,0,0,0,0,0,0,0,0,0,0],"split_type":[0,0,0,0,0,0,0,0,0,0,0,0,0,0,0,0,0,0,0,0,0,0,0,0,0,0,0,0,0,0,0,0,0,0,0,0,0,0,0,0,0,0,0,0,0,0,0,0,0,0,0],"sum_hessian":[6.206361E2,2.5281065E2,3.6782544E2,1.4053255E1,2.387574E2,6.531065E1,3.025148E2,5.473373E0,8.579882E0,2.3513315E2,3.6242604E0,6.116864E1,4.142012E0,2.8905325E2,1.3461539E1,4.43787E0,1.035503E0,2.2914201E2,5.9911246E0,8.431952E0,5.2736687E1,2.8801776E2,1.035503E0,3.994083E0,9.467456E0,1.431213E2,8.602071E1,4.215976E0,1.7751479E0,6.360947E0,2.071006E0,2.7366865E0,5E1,2.8698227E2,1.035503E0,2.810651E0,1.183432E0,8.431952E0,1.035503E0,1.3528107E2,7.8402367E0,4.215976E0,8.180473E1,4.9556212E0,1.4053255E0,1.3313609E0,1.4053255E0,4.704142E1,2.95858E0,1.1094675E0,1.7011834E0],"tree_param":{"num_deleted":"0","num_feature":"14","num_nodes":"51","size_leaf_vector":"0"}},{"base_weights":[2.8194824E-1,-4.3748375E-2,1.8105544E0,-3.2763654E-1,1.2839609E0,8.330082E0,-1.7159022E-1,7.5668645E-1,-5.103105E-1,1.1918532E1,-3.3764353E-1,1.1773543E1,1.2603875E-1,5.1245254E-1,-3.500633E-1,-4.57093E-1,1.101446E1,4.3918914E-1,-5.157971E-1,-4.0876082E-1,1.0968451E0,1.581081E0,-4.4482464E-1,-7.1468134E-3,1.1339123E0,3.112078E-1,-4.0129828E-1,7.154724E-1,-5.103893E-1,1.2093023E0,-4.4694182E-1,9.307873E-2,1.6419466E0,6.896278E-1,-3.306303E-1,1.6455692E-1,2.0887747E0,-3.8863978E-1,1.3031025E0,-4.3120927E-1,6.341463E-1,-4.719056E-1,2.2847097E-1,-3.1026253E-1,1.4823066E0,2.2674416E-1,-4.4561997E-1,1.2093023E0,-3.9337176E-1,3.1036034E0,1.1193109E-1,-4.609929E-1,1.9696966E-1],"categories":[],"categories_nodes":[],"categories_segments":[],"categories_sizes":[],"default_left":[1,1,1,1,1,1,1,1,1,0,1,0,1,1,1,1,0,0,0,1,1,0,0,1,1,1,1,0,0,0,1,0,0,1,1,1,1,0,0,1,0,0,0,0,0,0,0,0,0,0,0,0,0],"id":17,"left_children":[1,3,5,7,9,11,13,15,17,-1,19,-1,21,23,25,27,-1,-1,-1,29,31,-1,-1,33,35,37,39,-1,-1,-1,41,-1,-1,43,45,47,49,-1,-1,51,-1,-1,-1,-1,-1,-1,-1,-1,-1,-1,-1,-1,-1],"loss_changes":[3.095681E2,1.9394171E2,1.4127124E3,8.432767E1,1.5672031E3,7.1839734E2,1.0523234E1,7.7078796E2,2.1190414E0,0E0,8.571371E0,0E0,7.800524E0,5.8004227E0,2.4216242E0,3.8620272E0,0E0,0E0,0E0,5.2722692E0,2.0535955E0,0E0,0E0,2.6540098E0,7.2226543E0,4.2812715E0,2.2355385E0,0E0,0E0,0E0,1.3817568E0,0E0,0E0,3.4215717E0,6.1548674E-1,3.4729505E0,7.742531E0,0E0,0E0,1.2539434E0,0E0,0E0,0E0,0E0,0E0,0E0,0E0,0E0,0E0,0E0,0E0,0E0,0E0],"parents":[2147483647,0,0,1,1,2,2,3,3,4,4,5,5,6,6,7,7,8,8,10,10,12,12,13,13,14,14,15,15,19,19,20,20,23,23,24,24,25,25,26,26,30,30,33,33,34,34,35,35,36,36,39,39],"right_children":[2,4,6,8,10,12,14,16,18,-1,20,-1,22,24,26,28,-1,-1,-1,30,32,-1,-1,34,36,38,40,-1,-1,-1,42,-1,-1,44,46,48,50,-1,-1,52,-1,-1,-1,-1,-1,-1,-1,-1,-1,-1,-1,-1,-1],"split_conditions":[6.964662E-1,1.2701356E-1,-6.1284E-2,-6.5841544E-1,1.3879451E-1,1.067479E0,-7.765822E-2,-6.600739E-1,-1.757626E0,3.5755599E0,2.308732E0,3.5320632E0,-5.7793045E-1,2.4503217E0,-3.838239E0,-3.6559832E-1,3.304338E0,1.3175675E-1,-1.5473913E-1,-4.270423E0,-1.539288E0,4.7432432E-1,-1.334474E-1,1.4859734E-2,1.5283463E0,-4.2787642E0,5.0291867E0,2.1464173E-1,-1.531168E-1,3.627907E-1,1.2124346E0,2.7923621E-2,4.92584E-1,-9.676771E-1,-1.2140305E0,-1.7278597E0,2.8655276E0,-1.1659194E-1,3.9093077E-1,2.9515662E0,1.9024388E-1,-1.4157169E-1,6.8541296E-2,-9.307876E-2,4.44692E-1,6.802325E-2,-1.3368599E-1,3.627907E-1,-1.18011534E-1,9.3108106E-1,3.357933E-2,-1.3829787E-1,5.90909E-2],"split_indices":[7,11,9,10,11,7,6,10,5,0,6,0,9,7,4,8,0,0,0,4,4,0,0,11,10,4,11,0,0,0,8,0,0,2,3,10,10,0,0,6,0,0,0,0,0,0,0,0,0,0,0,0,0],"split_type":[0,0,0,0,0,0,0,0,0,0,0,0,0,0,0,0,0,0,0,0,0,0,0,0,0,0,0,0,0,0,0,0,0,0,0,0,0,0,0,0,0,0,0,0,0,0,0,0,0,0,0,0,0],"sum_hessian":[6.206361E2,5.12426E2,1.0821006E2,4.2278107E2,8.964497E1,2.4482248E1,8.372781E1,6.050296E1,3.622781E2,1.102071E1,7.862426E1,1.693787E1,7.5443788E0,1.693787E1,6.678994E1,5.4955624E1,5.5473375E0,1.627219E0,3.606509E2,7.559172E1,3.0325444E0,1.627219E0,5.91716E0,9.763314E0,7.1745563E0,4.43787E0,6.2352074E1,1.8491125E0,5.310651E1,1.035503E0,7.455621E1,1.47929E0,1.5532545E0,2.7366865E0,7.0266275E0,4.142012E0,3.0325444E0,2.95858E0,1.47929E0,6.116864E1,1.183432E0,7.2189354E1,2.366864E0,1.47929E0,1.2573965E0,1.035503E0,5.9911246E0,1.035503E0,3.106509E0,1.627219E0,1.4053255E0,5.8653847E1,2.514793E0],"tree_param":{"num_deleted":"0","num_feature":"14","num_nodes":"53","size_leaf_vector":"0"}},{"base_weights":[-5.0951153E-1,-2.8346857E-1,-5.174637E-1,-4.9668348E-1,2.1918604E0],"categories":[],"categories_nodes":[],"categories_segments":[],"categories_sizes":[],"default_left":[1,1,0,0,0],"id":18,"left_children":[1,3,-1,-1,-1],"loss_changes":[9.7073364E-1,1.3405541E1,0E0,0E0,0E0],"parents":[2147483647,0,0,1,1],"right_children":[2,4,-1,-1,-1],"split_conditions":[-1.6745276E0,-7.040004E-2,-1.552391E-1,-1.4900506E-1,6.5755814E-1],"split_indices":[8,2,0,0,0],"split_type":[0,0,0,0,0],"sum_hessian":[6.206361E2,2.2337278E1,5.982988E2,2.1301775E1,1.035503E0],"tree_param":{"num_deleted":"0","num_feature":"14","num_nodes":"5","size_leaf_vector":"0"}},{"base_weights":[3.0446944E-1,-1.1011516E-1,1.1996151E0,8.522416E-1,-3.0681992E-1,1.0066336E1,9.7425795E-1,4.5810313E0,-4.1962558E-1,-4.9696807E-2,-4.8856845E-1,-2.7934492E-2,1.4841087E0,-4.6571958E-1,8.979779E0,-4.9062216E-1,5.4241997E-1,-2.1500671E-1,8.437175E0,1.2093023E0,-5.029457E-1,5.6017435E-1,-4.7990322E-1,3.388108E-1,2.6969898E0,-3.37487E-1,1.1148283E1,-1.283319E-2,-5.095462E-1,1.3031025E0,-3.3262262E-1,7.4846154E-1,-5.153519E-1,-5.174633E-1,9.434194E-1,1.0276799E0,1.9265743E-1,-5.0551987E-1,-1.283319E-2,8.552631E0,-3.5473924E-2,4.844969E0,-9.466379E-3,-4.9982786E-1,3.794151E0,4.2279515E-1,2.473064E0,-2.0257637E-1,1.4483936E0,-4.5831606E-1,2.6530612E0,6.440595E0,-1.438508E-1,-3.125085E-1,8.539412E-1],"categories":[],"categories_nodes":[],"categories_segments":[],"categories_sizes":[],"default_left":[1,1,1,1,1,0,1,1,1,1,1,1,1,0,1,1,1,1,0,0,1,1,1,1,1,0,0,0,0,0,0,1,0,0,0,1,1,0,0,0,1,1,1,0,0,0,0,0,0,0,0,0,0,0,0],"id":19,"left_children":[1,3,5,7,9,-1,11,13,15,17,19,21,23,-1,25,27,29,31,-1,-1,33,35,37,39,41,-1,-1,-1,-1,-1,-1,43,-1,-1,-1,45,47,-1,-1,-1,49,51,53,-1,-1,-1,-1,-1,-1,-1,-1,-1,-1,-1,-1],"loss_changes":[2.3082976E2,8.0861336E1,3.8355038E2,3.458676E2,1.6530655E1,0E0,9.8702225E1,4.1552756E2,4.0223246E0,2.0919952E2,5.6718445E0,1.7835672E1,1.7688824E2,0E0,2.0479144E2,4.61277E-1,3.2653215E0,4.2625626E1,0E0,0E0,4.822117E0,4.815688E0,4.470768E-1,2.0620923E2,3.6059778E2,0E0,0E0,0E0,0E0,0E0,0E0,1.3533418E2,0E0,0E0,0E0,9.981329E0,9.012597E0,0E0,0E0,0E0,7.5170166E1,2.761925E2,7.708374E0,0E0,0E0,0E0,0E0,0E0,0E0,0E0,0E0,0E0,0E0,0E0,0E0],"parents":[2147483647,0,0,1,1,2,2,3,3,4,4,6,6,7,7,8,8,9,9,10,10,11,11,12,12,14,14,15,15,16,16,17,17,20,20,21,21,22,22,23,23,24,24,31,31,35,35,36,36,40,40,41,41,42,42],"right_children":[2,4,6,8,10,-1,12,14,16,18,20,22,24,-1,26,28,30,32,-1,-1,34,36,38,40,42,-1,-1,-1,-1,-1,-1,44,-1,-1,-1,46,48,-1,-1,-1,50,52,54,-1,-1,-1,-1,-1,-1,-1,-1,-1,-1,-1,-1],"split_conditions":[-8.48759E-2,-1.2840475E-1,-7.22307E-2,-5.4553443E-1,-6.3726556E-1,3.0199008E0,-7.2570103E-1,-4.694823E-1,1.7076242E-1,-6.3956296E-1,-7.57491E-1,-1.1606437E0,-9.800857E-2,-1.3971588E-1,-2.9355955E-1,-1.8336001E-1,1.4805213E0,-4.3619627E-1,2.5311525E0,3.627907E-1,9.03517E-1,1.2858818E0,8.6129236E-1,-7.198516E-1,5.076137E-1,-1.0124611E-1,3.344485E0,-3.8499571E-3,-1.5286388E-1,3.9093077E-1,-9.978679E-2,-6.1840843E-3,-1.5460557E-1,-1.55239E-1,2.8302583E-1,3.7945313E0,1.4152765E0,-1.5165597E-1,-3.8499571E-3,2.5657895E0,9.8304784E-1,8.118638E-1,2.3951502E0,-1.4994836E-1,1.1382453E0,1.2683855E-1,7.419192E-1,-6.0772914E-2,4.345181E-1,-1.3749482E-1,7.959184E-1,1.9321786E0,-4.315524E-2,-9.3752556E-2,2.5618237E-1],"split_indices":[9,4,9,7,7,0,4,11,13,7,9,4,11,0,5,8,7,13,0,0,13,11,8,4,13,0,0,0,0,0,0,10,0,0,0,13,8,0,0,0,10,11,13,0,0,0,0,0,0,0,0,0,0,0,0],"split_type":[0,0,0,0,0,0,0,0,0,0,0,0,0,0,0,0,0,0,0,0,0,0,0,0,0,0,0,0,0,0,0,0,0,0,0,0,0,0,0,0,0,0,0,0,0,0,0,0,0,0,0,0,0,0,0],"sum_hessian":[6.206361E2,4.247781E2,1.9585799E2,7.1523674E1,3.5325446E2,3.7721894E0,1.920858E2,1.7529587E1,5.3994083E1,1.4681953E2,2.0643492E2,6.508876E1,1.2699705E2,8.579882E0,8.949704E0,5.0739647E1,3.254438E0,1.4497041E2,1.8491125E0,1.035503E0,2.0539941E2,2.8180473E1,3.6908283E1,6.597633E1,6.102071E1,1.8491125E0,7.1005917E0,1.9970415E0,4.8742603E1,1.47929E0,1.7751479E0,3.4097633E1,1.1087279E2,2.039941E2,1.4053255E0,1.1612427E1,1.6568048E1,3.4911243E1,1.9970415E0,1.923077E0,6.405325E1,3.3579884E1,2.7440828E1,2.4778107E1,9.319527E0,9.097633E0,2.514793E0,1.3239645E1,3.3284025E0,5.606509E1,7.988166E0,2.5221893E1,8.357988E0,2.0784023E1,6.656805E0],"tree_param":{"num_deleted":"0","num_feature":"14","num_nodes":"55","size_leaf_vector":"0"}},{"base_weights":[-5.0629425E-1,-5.191338E-1,-1.3796766E-1,-4.9554813E-1,3.6656976E0],"categories":[],"categories_nodes":[],"categories_segments":[],"categories_sizes":[],"default_left":[1,0,1,0,0],"id":20,"left_children":[1,-1,3,-1,-1],"loss_changes":[2.8681946E0,0E0,3.2149544E1,0E0,0E0],"parents":[2147483647,0,0,2,2],"right_children":[2,-1,4,-1,-1],"split_conditions":[2.3034685E0,-1.5574014E-1,4.961794E-1,-1.4866444E-1,1.0997093E0],"split_indices":[10,0,2,0,0],"split_type":[0,0,0,0,0],"sum_hessian":[6.206361E2,5.9933435E2,2.1301775E1,2.0266273E1,1.035503E0],"tree_param":{"num_deleted":"0","num_feature":"14","num_nodes":"5","size_leaf_vector":"0"}},{"base_weights":[2.4816641E-1,-4.4112012E-1,1.2604607E1,-4.9021012E-1,3.2292855E-1,3.5583937E-1,-5.0439054E-1,7.554339E-1,-1.9903666E-1,1.090604E0,-4.243743E-1,-5.116499E-1,3.0005363E-1,4.0632167E-1,1.9527119E0,1.4823066E0,-4.2464736E-1,-3.1026253E-1,1.7158384E0,2.2674416E-1,-5.1348484E-1,1.7005813E0,-4.0383345E-1,1.0090553E-1,1.3448275E0,2.8213913E0,1.1193109E-1,-4.8511314E-1,2.2674416E-1,2.9164677E0,-2.9695433E-1,-5.1532674E-1,2.2674416E-1,4.717128E-1,-3.0708662E-1,2.5131264E0,-3.1633836E-1],"categories":[],"categories_nodes":[],"categories_segments":[],"categories_sizes":[],"default_left":[1,1,0,1,1,1,1,1,1,1,0,1,1,1,1,0,1,0,1,0,1,0,0,1,1,0,0,0,0,0,0,0,0,0,0,0,0],"id":21,"left_children":[1,3,-1,5,7,9,11,13,15,17,-1,19,21,23,25,-1,27,-1,29,-1,31,-1,-1,33,35,-1,-1,-1,-1,-1,-1,-1,-1,-1,-1,-1,-1],"loss_changes":[5.3001143E3,2.2278397E1,0E0,6.832611E0,8.324212E0,6.0395193E0,3.3410034E0,7.56997E0,7.1532445E0,5.165661E0,0E0,8.4983826E-1,6.120392E0,4.666705E0,6.4872513E0,0E0,7.3785615E-1,0E0,1.0074944E1,0E0,8.534851E-1,0E0,0E0,2.2207935E0,8.621111E0,0E0,0E0,0E0,0E0,0E0,0E0,0E0,0E0,0E0,0E0,0E0,0E0],"parents":[2147483647,0,0,1,1,3,3,4,4,5,5,6,6,7,7,8,8,9,9,11,11,12,12,13,13,14,14,16,16,18,18,20,20,23,23,24,24],"right_children":[2,4,-1,6,8,10,12,14,16,18,-1,20,22,24,26,-1,28,-1,30,-1,32,-1,-1,34,36,-1,-1,-1,-1,-1,-1,-1,-1,-1,-1,-1,-1],"split_conditions":[1.3898919E0,1.4947987E0,3.781382E0,-2.0018854E0,1.4537832E0,-1.0723981E0,3.1206532E0,2.3657677E0,-2.7889013E-1,3.302388E-1,-1.273123E-1,-4.649885E0,-7.0189077E-1,6.80989E-1,-1.0441064E0,4.44692E-1,4.686332E0,-9.307876E-2,3.5711327E0,6.802325E-2,4.4421463E0,5.101744E-1,-1.2115004E-1,3.5132468E0,-1.0155985E0,8.464174E-1,3.357933E-2,-1.4553395E-1,6.802325E-2,8.7494034E-1,-8.90863E-2,-1.5459803E-1,6.802325E-2,1.4151384E-1,-9.212599E-2,7.5393796E-1,-9.490151E-2],"split_indices":[2,13,0,8,10,2,10,5,9,12,0,4,13,10,3,0,10,0,12,0,7,0,0,13,0,0,0,0,0,0,0,0,0,0,0,0,0],"split_type":[0,0,0,0,0,0,0,0,0,0,0,0,0,0,0,0,0,0,0,0,0,0,0,0,0,0,0,0,0,0,0,0,0,0,0,0,0],"sum_hessian":[6.206361E2,5.887574E2,3.1878698E1,5.535503E2,3.52071E1,8.727811E0,5.448225E2,1.9008877E1,1.6198225E1,4.289941E0,4.43787E0,5.4031067E2,4.5118346E0,1.5754438E1,3.254438E0,1.2573965E0,1.4940828E1,1.47929E0,2.810651E0,1.035503E0,5.3927515E2,1.035503E0,3.4763315E0,1.2721894E1,3.0325444E0,1.8491125E0,1.4053255E0,1.3905326E1,1.035503E0,1.47929E0,1.3313609E0,5.382397E2,1.035503E0,6.5828404E0,6.1390533E0,1.47929E0,1.5532545E0],"tree_param":{"num_deleted":"0","num_feature":"14","num_nodes":"37","size_leaf_vector":"0"}},{"base_weights":[2.7229628E-1,1.5582478E0,-2.841743E-1,4.183397E0,7.4751717E-1,2.2356687E0,-3.0792594E-1,5.966799E0,-4.8039657E-1,2.9586668E0,5.902341E-2,4.4213195E0,-3.37487E-1,-3.805934E-1,1.8814607E-1,9.6805E0,7.0400983E-1,5.4863586E0,2.9619154E-1,-3.5510102E-1,7.37281E-1,-4.0582365E-1,2.9750153E-1,4.648256E0,1.8959617E-2,2.890767E0,1.1082925E1,3.110533E0,-3.7877956E-1,1.02193775E1,2.4995105E0,-4.7360086E-1,1.3948497E0,-3.9418036E-1,5.9924734E-1,7.7565627E0,2.9579487E-1,-9.535768E-2,-4.657561E-1,4.1569767E0,-3.2698846E-1,4.1927308E-1,-4.60177E-1,6.3551764E0,-3.6208448E-1,-7.824594E-2,6.837307E0,-4.644325E-1,1.1193109E-1,-4.5580718E-1,6.7926536E0,4.447368E0,-4.2812338E-1,-4.753187E-1,9.368213E-3,-2.734923E-1,1.2093023E0,4.3014703E0,-4.353786E-2,-3.584091E-1,7.04607E0,-1.2888771E-1,-4.899753E-1,5.609137E-1,-4.7564977E-1,-1.8157086E-1,1.0424527E0,-4.9866474E-1,2.2674416E-1],"categories":[],"categories_nodes":[],"categories_segments":[],"categories_sizes":[],"default_left":[1,1,1,1,1,1,1,1,0,1,1,0,0,1,1,1,1,1,1,1,1,1,1,0,1,1,0,1,1,0,1,0,1,1,1,0,1,1,1,0,1,1,1,0,0,0,0,0,0,0,0,0,0,0,0,0,0,0,0,0,0,0,0,0,0,0,0,0,0],"id":22,"left_children":[1,3,5,7,9,11,13,15,-1,17,19,-1,-1,21,23,25,27,29,31,33,35,37,39,-1,41,43,-1,45,47,-1,49,-1,51,53,55,-1,57,59,61,-1,63,65,67,-1,-1,-1,-1,-1,-1,-1,-1,-1,-1,-1,-1,-1,-1,-1,-1,-1,-1,-1,-1,-1,-1,-1,-1,-1,-1],"loss_changes":[4.4528198E2,3.967959E2,2.6707073E1,3.698418E2,2.2024368E2,2.5003199E1,1.5628147E1,6.18433E2,0E0,2.2960141E2,3.1560324E1,0E0,0E0,6.566189E0,4.2023804E1,1.4581079E2,3.8476006E1,2.2281274E2,1.57062435E1,2.8416967E0,1.2962044E2,6.721981E0,3.5323185E1,0E0,1.069851E1,5.3579353E1,0E0,5.4610058E1,5.043756E-1,0E0,1.5654855E2,0E0,4.4099945E1,2.221694E0,2.0051775E0,0E0,5.603745E1,1.1542255E2,2.4215775E0,0E0,1.9901754E0,1.155855E1,7.8481436E-1,0E0,0E0,0E0,0E0,0E0,0E0,0E0,0E0,0E0,0E0,0E0,0E0,0E0,0E0,0E0,0E0,0E0,0E0,0E0,0E0,0E0,0E0,0E0,0E0,0E0,0E0],"parents":[2147483647,0,0,1,1,2,2,3,3,4,4,5,5,6,6,7,7,9,9,10,10,13,13,14,14,15,15,16,16,17,17,18,18,19,19,20,20,21,21,22,22,24,24,25,25,27,27,28,28,30,30,32,32,33,33,34,34,36,36,37,37,38,38,40,40,41,41,42,42],"right_children":[2,4,6,8,10,12,14,16,-1,18,20,-1,-1,22,24,26,28,30,32,34,36,38,40,-1,42,44,-1,46,48,-1,50,-1,52,54,56,-1,58,60,62,-1,64,66,68,-1,-1,-1,-1,-1,-1,-1,-1,-1,-1,-1,-1,-1,-1,-1,-1,-1,-1,-1,-1,-1,-1,-1,-1,-1,-1],"split_conditions":[-5.613318E-1,-2.8759557E-1,-8.948147E-1,9.5113987E-1,-1.1094944E0,6.593144E-1,2.655754E-1,-1.1408519E-1,-1.4411898E-1,2.1263593E-1,-2.6622018E-1,1.3263959E0,-1.0124611E-1,5.01736E-1,2.773365E-1,-2.472558E-1,-4.663843E-1,-1.1563233E0,-1.2308702E0,-4.5692772E-1,-2.5087565E-1,-4.0360874E-1,6.5003717E-1,1.3944768E0,-8.5951066E-1,-4.995847E-1,3.3248775E0,-6.0809195E-1,6.9614995E-1,3.0658133E0,6.964809E-2,-1.4208026E-1,7.384275E-1,-3.4871656E-1,-5.4398966E-1,2.326969E0,-1.0451015E0,-4.2395747E-1,-8.590548E-1,1.2470931E0,5.983478E-2,-1.1050305E0,1.2312331E0,1.906553E0,-1.08625345E-1,-2.3473782E-2,2.0511923E0,-1.3932976E-1,3.357933E-2,-1.3674216E-1,2.0377963E0,1.3342105E0,-1.2843703E-1,-1.4259562E-1,2.810464E-3,-8.204769E-2,3.627907E-1,1.2904412E0,-1.3061359E-2,-1.0752273E-1,2.113821E0,-3.8666315E-2,-1.469926E-1,1.682741E-1,-1.4269494E-1,-5.4471258E-2,3.1273583E-1,-1.4959943E-1,6.802325E-2],"split_indices":[6,12,7,4,5,6,11,11,0,13,13,0,0,13,11,4,8,6,8,7,13,8,13,0,2,4,0,8,10,0,10,0,10,13,4,0,5,8,10,0,7,1,4,0,0,0,0,0,0,0,0,0,0,0,0,0,0,0,0,0,0,0,0,0,0,0,0,0,0],"split_type":[0,0,0,0,0,0,0,0,0,0,0,0,0,0,0,0,0,0,0,0,0,0,0,0,0,0,0,0,0,0,0,0,0,0,0,0,0,0,0,0,0,0,0,0,0,0,0,0,0,0,0,0,0,0,0,0,0,0,0,0,0,0,0,0,0,0,0,0,0],"sum_hessian":[6.206361E2,1.869083E2,4.337278E2,4.3121304E1,1.4378699E2,3.1804736E0,4.3054736E2,3.0991125E1,1.21301775E1,3.335799E1,1.1042899E2,1.3313609E0,1.8491125E0,3.7573965E2,5.4807693E1,1.7677515E1,1.331361E1,1.6568048E1,1.6789942E1,6.886095E1,4.1568047E1,3.6264795E2,1.3091717E1,1.035503E0,5.377219E1,3.5502958E0,1.4127219E1,3.5502958E0,9.763314E0,5.473373E0,1.1094675E1,1.0207101E1,6.5828404E0,6.671598E1,2.1449704E0,1.47929E0,4.0088757E1,5.9097633E1,3.035503E2,1.035503E0,1.2056213E1,2.9363907E1,2.4408285E1,1.2573965E0,2.2928994E0,2.4408286E0,1.1094675E0,8.357988E0,1.4053255E0,7.1005917E0,3.994083E0,1.923077E0,4.6597633E0,5.539941E1,1.1316568E1,1.1094675E0,1.035503E0,2.218935E0,3.7869823E1,5.7914204E1,1.183432E0,2.0784023E1,2.8276627E2,1.3313609E0,1.0724853E1,1.5310651E1,1.4053255E1,2.3372782E1,1.035503E0],"tree_param":{"num_deleted":"0","num_feature":"14","num_nodes":"69","size_leaf_vector":"0"}},{"base_weights":[2.449491E-1,-2.0864011E-1,1.7726535E0,7.2151585E0,-3.4121463E-1,4.597474E0,-2.5163066E-1,-1.132225E-1,1.0732714E1,9.467139E-1,-4.700044E-1,1.1794221E0,9.114942E0,-3.9194238E-1,2.6991788E-1,2.2674416E-1,-3.274918E-1,-4.0393528E-1,1.0576392E1,-5.019173E-1,4.1250232E-1,7.762981E0,-4.6751124E-1,1.1441049E1,-4.3268755E-1,1.5526597E-1,-4.606988E-1,1.6968083E-2,1.3350167E0,-5.060927E-1,1.2502896E0,-5.0906307E-1,4.6084085E-1,1.1192052E0,-7.1468134E-3,-3.3262262E-1,1.0542505E1,-5.0132793E-1,2.0056099E-1,-3.0381304E-1,1.2320129E1,9.518304E-1,-2.7096462E-1,4.1292438E-1,-4.936371E-1,1.1563342E0,-2.6068005E-1,-2.8184283E-1,2.2766497E0,-5.11446E-1,2.7718527E-2,-3.1633836E-1,1.2093023E0,1.165919E-1,2.1194184E0,9.518304E-1,-3.4513277E-1,2.2674416E-1,1.2093023E0,-4.173964E-1,2.2674416E-1,-5.1081616E-1,2.2674416E-1,2.1918604E0,-2.8964615E-1,-4.644325E-1,1.5484965E-1],"categories":[],"categories_nodes":[],"categories_segments":[],"categories_sizes":[],"default_left":[1,1,1,1,1,1,1,1,0,1,1,1,1,1,1,0,0,1,0,1,1,1,1,1,0,1,1,1,1,0,0,1,1,1,1,0,0,0,0,0,0,1,1,0,1,1,1,0,0,0,0,0,0,0,0,0,0,0,0,0,0,0,0,0,0,0,0],"id":23,"left_children":[1,3,5,7,9,11,13,15,-1,17,19,21,23,25,27,-1,-1,29,-1,31,33,35,37,39,-1,41,43,45,47,-1,-1,49,51,53,55,-1,-1,-1,-1,-1,-1,57,59,-1,61,63,65,-1,-1,-1,-1,-1,-1,-1,-1,-1,-1,-1,-1,-1,-1,-1,-1,-1,-1,-1,-1],"loss_changes":[4.3113275E2,4.750936E2,8.155491E2,2.195654E2,7.886024E1,9.0807715E2,6.24658E0,3.4645358E-1,0E0,5.675458E2,1.2329605E1,3.8337982E2,5.708804E2,2.5747576E0,4.92967E0,0E0,0E0,7.2139277E0,0E0,3.0956192E0,4.6258497E0,1.6248474E2,7.5477886E-1,2.1567407E2,0E0,3.033339E0,1.9119015E0,5.3208027E0,5.992888E0,0E0,0E0,5.428009E-1,2.4700885E0,5.5770044E0,3.817122E0,0E0,0E0,0E0,0E0,0E0,0E0,2.991221E-1,5.3947127E-1,0E0,8.293543E-1,5.56549E0,1.2211597E0,0E0,0E0,0E0,0E0,0E0,0E0,0E0,0E0,0E0,0E0,0E0,0E0,0E0,0E0,0E0,0E0,0E0,0E0,0E0,0E0],"parents":[2147483647,0,0,1,1,2,2,3,3,4,4,5,5,6,6,7,7,9,9,10,10,11,11,12,12,13,13,14,14,17,17,19,19,20,20,21,21,22,22,23,23,25,25,26,26,27,27,28,28,31,31,32,32,33,33,34,34,41,41,42,42,44,44,45,45,46,46],"right_children":[2,4,6,8,10,12,14,16,-1,18,20,22,24,26,28,-1,-1,30,-1,32,34,36,38,40,-1,42,44,46,48,-1,-1,50,52,54,56,-1,-1,-1,-1,-1,-1,58,60,-1,62,64,66,-1,-1,-1,-1,-1,-1,-1,-1,-1,-1,-1,-1,-1,-1,-1,-1,-1,-1,-1,-1],"split_conditions":[3.0373847E-1,-9.2500466E-1,-3.8134685E-1,-9.333846E-1,-8.373221E-1,-5.6357425E-1,2.5289588E0,-1.0420167E0,3.2198143E0,-8.3844376E-1,1.4606518E0,-2.952548E-1,5.570765E-1,-3.555898E-1,-8.9045143E-1,6.802325E-2,-9.824754E-2,1.7836265E-1,3.1729178E0,3.2368443E0,-1.1328211E0,-4.22118E-1,6.42668E-1,9.141953E-2,-1.2980627E-1,1.6418812E-1,-4.0262947E0,2.9954085E0,-1.142911E0,-1.5182783E-1,3.7508687E-1,1.9000044E0,3.2391256E-1,1.2102015E0,-8.083304E-1,-9.978679E-2,3.1627517E0,-1.5039839E-1,6.01683E-2,-9.114391E-2,3.696039E0,-9.7704005E-1,1.19549274E-1,1.2387732E-1,2.1403215E0,1.8018483E0,-9.431505E-1,-8.4552854E-2,6.8299496E-1,-1.534338E-1,8.315559E-3,-9.490151E-2,3.627907E-1,3.497757E-2,6.358255E-1,2.8554913E-1,-1.0353983E-1,6.802325E-2,3.627907E-1,-1.2521893E-1,6.802325E-2,-1.5324485E-1,6.802325E-2,6.5755814E-1,-8.689385E-2,-1.3932976E-1,4.6454895E-2],"split_indices":[12,11,7,11,7,7,12,1,0,7,7,4,10,6,2,0,0,9,0,13,1,4,9,10,0,11,4,12,3,0,0,10,6,10,13,0,0,0,0,0,0,0,3,0,8,10,1,0,0,0,0,0,0,0,0,0,0,0,0,0,0,0,0,0,0,0,0],"split_type":[0,0,0,0,0,0,0,0,0,0,0,0,0,0,0,0,0,0,0,0,0,0,0,0,0,0,0,0,0,0,0,0,0,0,0,0,0,0,0,0,0,0,0,0,0,0,0,0,0,0,0,0,0,0,0,0,0,0,0,0,0,0,0,0,0,0,0],"sum_hessian":[6.206361E2,4.79216E2,1.4142012E2,7.470414E0,4.7174557E2,5.850592E1,8.29142E1,2.7366865E0,4.733728E0,4.2307693E1,4.2943787E2,3.402367E1,2.4482248E1,6.553255E1,1.7381657E1,1.035503E0,1.7011834E0,3.7943787E1,4.3639054E0,4.1486688E2,1.4571006E1,6.0650887E0,2.795858E1,1.9526628E1,4.9556212E0,7.1745563E0,5.835799E1,1.4866864E1,2.514793E0,3.6390533E1,1.5532545E0,4.122781E2,2.5887575E0,4.8076925E0,9.763314E0,1.7751479E0,4.289941E0,2.6849113E1,1.1094675E0,1.4053255E0,1.8121302E1,2.071006E0,5.1035504E0,1.7011834E0,5.6656807E1,2.2928994E0,1.2573965E1,1.183432E0,1.3313609E0,4.1050296E2,1.7751479E0,1.5532545E0,1.035503E0,2.95858E0,1.8491125E0,2.071006E0,7.692308E0,1.035503E0,1.035503E0,4.0680475E0,1.035503E0,5.5621304E1,1.035503E0,1.035503E0,1.2573965E0,8.357988E0,4.215976E0],"tree_param":{"num_deleted":"0","num_feature":"14","num_nodes":"67","size_leaf_vector":"0"}},{"base_weights":[2.8194824E-1,2.6305106E-2,3.058262E0,4.942433E0,-1.2229144E-1,6.8163333E0,-2.9252684E-1,1.0288295E-1,1.1215996E1,-4.9286824E-1,1.0808353E0,9.727921E0,-9.704944E-2,8.586326E-1,-3.9015606E-1,9.128738E-1,-4.4482464E-1,-5.092117E-1,6.1572826E-1,1.1302163E1,4.4212627E-1,-3.9337176E-1,1.1952045E1,1.2093023E0,-4.4863987E-1,-4.6153846E-1,6.7461425E-1,1.6554787E0,-3.1633836E-1,2.2674416E-1,-5.115777E-1,1.3350167E0,-1.4985593E-1,-3.1903923E-1,3.7853575E0,-4.972125E-1,-1.5640482E-1,-5.138728E-1,-3.214838E-1,1.3197967E-1,2.00813E0,2.2674416E-1,-3.506744E-1,1.7158384E0,-3.9391592E-1,1.1135539E1,2.3392121E-1,-3.506744E-1,2.0056099E-1],"categories":[],"categories_nodes":[],"categories_segments":[],"categories_sizes":[],"default_left":[1,1,1,1,1,1,1,1,0,1,1,1,1,0,1,1,0,1,1,0,1,0,0,0,0,1,0,0,0,0,1,1,1,1,1,0,1,0,0,0,0,0,0,0,0,0,0,0,0],"id":24,"left_children":[1,3,5,7,9,11,13,15,-1,17,19,21,23,-1,25,27,-1,29,31,-1,33,-1,-1,-1,-1,35,-1,-1,-1,-1,37,39,41,43,45,-1,47,-1,-1,-1,-1,-1,-1,-1,-1,-1,-1,-1,-1],"loss_changes":[4.4112302E2,4.171692E2,6.619083E2,5.0753128E2,2.4774649E2,4.9898596E2,3.556312E0,5.0498314E0,0E0,8.006485E0,8.494581E2,3.968462E2,4.365065E0,0E0,2.3718395E0,4.6772866E0,0E0,8.455429E-1,3.8462517E0,0E0,3.1732916E2,0E0,0E0,0E0,0E0,2.0525265E-1,0E0,0E0,0E0,0E0,1.713562E-2,2.5811772E0,3.9008147E-1,1.6233799E1,6.0079236E2,0E0,3.6023736E-1,0E0,0E0,0E0,0E0,0E0,0E0,0E0,0E0,0E0,0E0,0E0,0E0],"parents":[2147483647,0,0,1,1,2,2,3,3,4,4,5,5,6,6,7,7,9,9,10,10,11,11,12,12,14,14,15,15,17,17,18,18,20,20,25,25,30,30,31,31,32,32,33,33,34,34,36,36],"right_children":[2,4,6,8,10,12,14,16,-1,18,20,22,24,-1,26,28,-1,30,32,-1,34,-1,-1,-1,-1,36,-1,-1,-1,-1,38,40,42,44,46,-1,48,-1,-1,-1,-1,-1,-1,-1,-1,-1,-1,-1,-1],"split_conditions":[1.0519954E0,-1.558398E0,1.1747618E0,-1.5743667E0,1.3144101E-1,-2.6504287E-1,-1.4407704E0,-2.641839E-1,3.3647988E0,2.0429845E0,1.3294628E-1,-7.850816E-1,-1.213726E0,2.575898E-1,2.6464663E0,-1.0616276E0,-1.334474E-1,-3.3406208E0,1.5453801E0,3.390649E0,1.3737421E0,-1.18011534E-1,3.5856137E0,3.627907E-1,-1.3459197E-1,1.2459474E0,2.0238428E-1,4.9664363E-1,-9.490151E-2,6.802325E-2,5.691356E-1,1.3207731E0,-1.1484963E0,-1.9659393E0,1.439321E0,-1.4916375E-1,-1.9990135E-2,-1.5416184E-1,-9.644514E-2,3.9593905E-2,6.0243905E-1,6.802325E-2,-1.05202325E-1,5.1475155E-1,-1.18174784E-1,3.3406618E0,7.017637E-2,-1.05202325E-1,6.01683E-2],"split_indices":[4,12,4,12,13,13,6,5,0,9,13,7,2,0,6,1,0,4,7,0,6,0,0,0,0,0,0,0,0,0,9,12,1,6,6,0,7,0,0,0,0,0,0,0,0,0,0,0,0],"split_type":[0,0,0,0,0,0,0,0,0,0,0,0,0,0,0,0,0,0,0,0,0,0,0,0,0,0,0,0,0,0,0,0,0,0,0,0,0,0,0,0,0,0,0,0,0,0,0,0,0],"sum_hessian":[6.206361E2,5.692308E2,5.1405327E1,1.5754438E1,5.534763E2,2.3742603E1,2.7662724E1,9.467456E0,6.2869825E0,4.235947E2,1.2988165E2,1.6420118E1,7.3224854E0,1.5532545E0,2.6109468E1,3.5502958E0,5.91716E0,4.179734E2,5.621302E0,6.656805E0,1.2322485E2,3.106509E0,1.331361E1,1.035503E0,6.2869825E0,2.5E1,1.1094675E0,1.9970415E0,1.5532545E0,1.035503E0,4.1693787E2,2.514793E0,3.106509E0,1.0110947E2,2.2115385E1,2.1819527E1,3.1804736E0,4.1028107E2,6.656805E0,1.3313609E0,1.183432E0,1.035503E0,2.071006E0,2.810651E0,9.829882E1,6.508876E0,1.5606509E1,2.071006E0,1.1094675E0],"tree_param":{"num_deleted":"0","num_feature":"14","num_nodes":"49","size_leaf_vector":"0"}},{"base_weights":[-5.0629425E-1,-5.1912737E-1,-2.0137201E-1,-4.985998E-1,1.9561478E0,-3.0381304E-1,3.6656976E0],"categories":[],"categories_nodes":[],"categories_segments":[],"categories_sizes":[],"default_left":[1,0,1,0,1,0,0],"id":25,"left_children":[1,-1,3,-1,5,-1,-1],"loss_changes":[2.3279877E0,0E0,1.8122797E1,0E0,1.4407383E1,0E0,0E0],"parents":[2147483647,0,0,2,2,4,4],"right_children":[2,-1,4,-1,6,-1,-1],"split_conditions":[2.0496602E0,-1.5573822E-1,9.408207E-1,-1.4957994E-1,1.6776137E0,-9.114391E-2,1.0997093E0],"split_indices":[10,0,3,0,11,0,0],"split_type":[0,0,0,0,0,0,0],"sum_hessian":[6.206361E2,5.948965E2,2.5739645E1,2.3298817E1,2.4408286E0,1.4053255E0,1.035503E0],"tree_param":{"num_deleted":"0","num_feature":"14","num_nodes":"7","size_leaf_vector":"0"}},{"base_weights":[4.059413E-1,5.603331E-1,-3.2542828E-1,1.0099038E0,2.4402072E-1,-4.437644E-1,2.9747012E-1,-5.201852E-1,1.0701065E0,-3.6740142E-1,3.9579564E-1,9.8773277E-1,-4.6889088E-1,1.0138006E0,-1.418305E-2,1.2765123E0,7.391783E-1,6.266659E-1,-4.9366233E-1,-5.7017203E-2,6.3859814E-1,8.564445E-1,-4.9392837E-1,1.5438579E0,-3.3133334E-1,-2.5375867E-1,6.6428614E-1,1.4248681E0,8.0478716E-1,-4.0714893E-1,7.8913146E-1,9.607753E-1,-3.5151997E-1,2.2706215E-1,-5.372941E-1,-5.270529E-1,9.488938E-1,-5.5321777E-1,8.75777E-1,-5.1136506E-1,1.14693634E-1,9.187667E-2,2.112803E0,-3.842843E-1,3.1537122E-1,-3.2984668E-1,1.2883705E0,7.377118E-2,1.4423437E0,-2.0410752E-1,9.069427E-1,8.226995E-1,-3.6457396E-1,-7.537729E-2,1.4567914E0,-3.9010248E-1,1.1032438E0,-5.5324566E-1,2.3510729E-1,-5.545396E-1,6.963275E-1,1.6797972E-1,9.7199035E-1,-5.8644074E-1,5.5739217E-2,1.0407914E0,-2.644195E-1,7.2803783E-1,-3.4422585E-1,6.2878287E-1,2.5849204E0,2.3140037E-1,-4.6989897E-1,1.7290628E0,2.2446856E-1],"categories":[],"categories_nodes":[],"categories_segments":[],"categories_sizes":[],"default_left":[1,1,1,1,1,1,1,0,1,1,1,0,1,1,1,1,1,1,1,1,1,0,1,1,0,1,1,1,1,0,1,1,0,1,1,1,1,1,1,0,1,0,1,1,0,0,1,0,0,0,0,0,0,0,0,0,0,0,0,0,0,0,0,0,0,0,0,0,0,0,0,0,0,0,0],"id":26,"left_children":[1,3,5,7,9,11,13,-1,15,17,19,-1,21,23,25,27,29,31,33,35,37,-1,39,41,-1,43,45,47,49,-1,51,53,-1,55,57,59,61,63,65,-1,67,-1,69,71,-1,-1,73,-1,-1,-1,-1,-1,-1,-1,-1,-1,-1,-1,-1,-1,-1,-1,-1,-1,-1,-1,-1,-1,-1,-1,-1,-1,-1,-1,-1],"loss_changes":[8.892114E1,9.208139E1,1.0275681E1,2.5227722E1,3.563453E1,4.637104E0,5.0526752E0,0E0,1.6680328E1,9.920023E0,3.3773853E1,0E0,4.2298355E0,5.3997135E0,2.8850932E0,9.877655E0,6.132721E0,3.3020878E0,2.2761326E0,5.1576622E1,5.69721E1,0E0,1.2602711E0,4.0145044E0,0E0,1.0924622E0,3.3023305E0,2.692505E0,4.306347E0,0E0,4.0793495E0,3.7222757E0,0E0,2.924963E0,9.295597E-1,2.883501E0,4.63665E-1,7.161102E-1,3.1706055E1,0E0,1.368177E0,0E0,9.0733147E-1,6.9311213E-1,0E0,0E0,1.0432801E0,0E0,0E0,0E0,0E0,0E0,0E0,0E0,0E0,0E0,0E0,0E0,0E0,0E0,0E0,0E0,0E0,0E0,0E0,0E0,0E0,0E0,0E0,0E0,0E0,0E0,0E0,0E0,0E0],"parents":[2147483647,0,0,1,1,2,2,3,3,4,4,5,5,6,6,8,8,9,9,10,10,12,12,13,13,14,14,15,15,16,16,17,17,18,18,19,19,20,20,22,22,23,23,25,25,26,26,27,27,28,28,30,30,31,31,33,33,34,34,35,35,36,36,37,37,38,38,40,40,42,42,43,43,46,46],"right_children":[2,4,6,8,10,12,14,-1,16,18,20,-1,22,24,26,28,30,32,34,36,38,-1,40,42,-1,44,46,48,50,-1,52,54,-1,56,58,60,62,64,66,-1,68,-1,70,72,-1,-1,74,-1,-1,-1,-1,-1,-1,-1,-1,-1,-1,-1,-1,-1,-1,-1,-1,-1,-1,-1,-1,-1,-1,-1,-1,-1,-1,-1,-1],"split_conditions":[2.7863547E-1,-5.1185775E-1,1.1047425E0,-5.2518725E-1,-2.1535214E-3,-1.512758E0,-1.1782672E0,-1.5605555E-1,6.3336515E-1,-1.637569E0,-5.20952E-1,2.9631984E-1,-1.27454E0,4.3029404E0,3.5238836E0,-4.4732037E-1,2.222937E-1,3.166538E0,-3.2645497E0,1.5453437E-1,-2.957149E-1,2.5693336E-1,3.2151215E0,-2.4126759E0,-9.9400006E-2,4.696535E0,2.7872348E0,-3.454096E-1,3.9178723E-1,-1.22144684E-1,-4.6286397E-3,4.7728086E-1,-1.05455995E-1,-6.146346E-1,3.7579026E0,1.4828107E0,-2.9788202E-1,1.1608157E-1,-9.993335E-3,-1.5340953E-1,-1.1769102E0,2.7563002E-2,-1.041852E0,-2.6276002E0,9.461137E-2,-9.895401E-2,1.8935939E0,2.2131354E-2,4.3270314E-1,-6.1232258E-2,2.7208284E-1,2.4680986E-1,-1.0937219E-1,-2.2613188E-2,4.3703744E-1,-1.1703075E-1,3.3097315E-1,-1.6597371E-1,7.053219E-2,-1.663619E-1,2.0889826E-1,5.0393917E-2,2.9159713E-1,-1.7593223E-1,1.6721766E-2,3.1223744E-1,-7.9325855E-2,2.1841136E-1,-1.0326776E-1,1.8863487E-1,7.7547616E-1,6.9420114E-2,-1.409697E-1,5.1871884E-1,6.734057E-2],"split_indices":[5,11,11,12,4,13,0,0,4,5,6,0,11,11,13,9,10,7,4,9,11,0,9,4,0,11,11,10,6,0,13,13,0,5,7,12,8,7,11,0,0,0,1,8,0,0,9,0,0,0,0,0,0,0,0,0,0,0,0,0,0,0,0,0,0,0,0,0,0,0,0,0,0,0,0],"split_type":[0,0,0,0,0,0,0,0,0,0,0,0,0,0,0,0,0,0,0,0,0,0,0,0,0,0,0,0,0,0,0,0,0,0,0,0,0,0,0,0,0,0,0,0,0,0,0,0,0,0,0,0,0,0,0,0,0,0,0,0,0,0,0,0,0,0,0,0,0,0,0,0,0,0,0],"sum_hessian":[7.8487305E2,6.482596E2,1.3661342E2,2.6682782E2,3.8143176E2,1.1504512E2,2.1568295E1,9.811895E0,2.5701593E2,7.557177E1,3.0586002E2,1.3236585E0,1.1372146E2,5.855813E0,1.5712482E1,1.5652881E2,1.0048713E2,8.0702715E0,6.7501495E1,1.0702663E2,1.9883339E2,1.4928437E0,1.12228615E2,4.0945845E0,1.7612286E0,1.2074733E1,3.6377497E0,1.1754179E2,3.898702E1,3.8974612E0,9.658967E1,6.028854E0,2.0414178E0,3.6132085E0,6.3888287E1,7.326695E1,3.375967E1,3.278041E1,1.6605298E2,1.09258224E2,2.970389E0,1.4797248E0,2.6148596E0,1.0086302E1,1.9884303E0,1.5847689E0,2.0529807E0,1.5675871E0,1.159742E2,3.492901E0,3.5494118E1,9.4137566E1,2.4521027E0,2.2262871E0,3.802567E0,2.4454517E0,1.1677569E0,6.287356E1,1.0147257E0,7.219167E1,1.0752801E0,1.2074591E0,3.255221E1,3.111959E1,1.660821E0,1.4513548E2,2.0917486E1,1.0203191E0,1.9500699E0,1.1938941E0,1.4209654E0,1.0234574E0,9.062845E0,1.0095807E0,1.0433999E0],"tree_param":{"num_deleted":"0","num_feature":"14","num_nodes":"75","size_leaf_vector":"0"}},{"base_weights":[7.1407415E-2,-3.1489015E-1,7.45915E-1,5.670101E-1,-4.1679287E-1,1.6110538E-2,7.6386935E-1,-4.6315643E-1,2.9757854E-1,-4.2581573E-1,4.6110898E-1,2.0743582E-1,9.9527085E-1,9.0134454E-1,-4.8385188E-1,8.587436E-1,-3.5856268E-1,9.300644E-1,-3.385524E-1,7.914022E-1,-4.1632906E-1,2.0933666E0,6.710409E-1,-3.2948506E-1,1.7456604E0,-4.907826E-1,3.367825E-1,1.7297474E0,1.3812396E-1,-4.5769417E-1,2.3473296E-1,2.9530447E-2,1.693084E0,-3.0574018E-1,1.3204448E0,2.9086127E0,1.8288393E-1,3.3598147E-2,1.5128183E0,-4.9772814E-1,1.5658465E-1,2.3671465E0,1.1862033E-1,1.2266626E0,-2.6129636E-1],"categories":[],"categories_nodes":[],"categories_segments":[],"categories_sizes":[],"default_left":[1,1,0,1,1,1,1,1,1,0,1,1,1,1,1,1,1,1,0,1,0,1,1,0,0,1,0,1,1,0,0,0,0,0,0,0,0,0,0,0,0,0,0,0,0],"id":27,"left_children":[1,3,-1,5,7,9,11,13,15,-1,17,19,21,23,25,27,29,31,-1,33,-1,35,37,-1,-1,39,-1,41,43,-1,-1,-1,-1,-1,-1,-1,-1,-1,-1,-1,-1,-1,-1,-1,-1],"loss_changes":[1.373755E2,3.0375084E1,0E0,3.8009005E0,1.0114002E1,2.2176325E0,3.1262074E0,8.434521E0,7.2912745E0,0E0,2.415442E0,3.5588317E0,5.0100555E0,5.3358183E0,1.755867E0,6.362491E0,6.631477E-1,2.5594826E0,0E0,3.2615278E0,0E0,5.1302223E0,8.202865E0,0E0,0E0,1.3266754E0,0E0,4.5201883E0,3.2954826E0,0E0,0E0,0E0,0E0,0E0,0E0,0E0,0E0,0E0,0E0,0E0,0E0,0E0,0E0,0E0,0E0],"parents":[2147483647,0,0,1,1,3,3,4,4,5,5,6,6,7,7,8,8,10,10,11,11,12,12,13,13,14,14,15,15,16,16,17,17,19,19,21,21,22,22,25,25,27,27,28,28],"right_children":[2,4,-1,6,8,10,12,14,16,-1,18,20,22,24,26,28,30,32,-1,34,-1,36,38,-1,-1,40,-1,42,44,-1,-1,-1,-1,-1,-1,-1,-1,-1,-1,-1,-1,-1,-1,-1,-1],"split_conditions":[1.7608871E0,-1.5591277E0,2.2377451E-1,-4.001074E0,1.8694977E0,2.408572E0,-1.6403282E-1,-2.6230397E0,-1.0189754E0,-1.2774472E-1,2.6281881E0,1.38306E0,-2.0040624E0,9.8564155E-2,4.1654463E0,-8.0382064E-2,4.266866E0,1.3162694E0,-1.0156572E-1,-1.0576622E0,-1.24898724E-1,2.2915676E-2,-1.0030665E0,-9.884552E-2,5.2369815E-1,3.5211787E0,1.0103475E-1,3.6935978E0,2.335795E0,-1.3730825E-1,7.041989E-2,8.859134E-3,5.079252E-1,-9.1722056E-2,3.9613345E-1,8.7258387E-1,5.486518E-2,1.0079444E-2,4.5384553E-1,-1.4931844E-1,4.6975397E-2,7.10144E-1,3.55861E-2,3.679988E-1,-7.8388914E-2],"split_indices":[1,4,0,4,7,9,12,8,0,0,11,11,10,10,12,5,7,11,0,0,0,5,3,0,0,9,0,11,7,0,0,0,0,0,0,0,0,0,0,0,0,0,0,0,0],"split_type":[0,0,0,0,0,0,0,0,0,0,0,0,0,0,0,0,0,0,0,0,0,0,0,0,0,0,0,0,0,0,0,0,0,0,0,0,0,0,0,0,0,0,0,0,0],"sum_hessian":[5.2532904E2,3.343668E2,1.909622E2,3.4161087E1,3.0020572E2,9.278252E0,2.4882835E1,2.822397E2,1.7966038E1,4.6768236E0,4.6014285E0,7.865558E0,1.7017277E1,3.5810316E0,2.7865866E2,9.517453E0,8.448585E0,2.7976782E0,1.8037503E0,3.923573E0,3.9419854E0,2.6353838E0,1.4381893E1,1.7051107E0,1.8759209E0,2.767235E2,1.9351348E0,3.675075E0,5.842378E0,7.434876E0,1.013709E0,1.7596267E0,1.0380514E0,1.4137628E0,2.5098102E0,1.480971E0,1.1544129E0,8.776063E0,5.6058307E0,2.7401477E2,2.7087355E0,2.2970574E0,1.3780175E0,1.0123413E0,4.8300366E0],"tree_param":{"num_deleted":"0","num_feature":"14","num_nodes":"45","size_leaf_vector":"0"}},{"base_weights":[3.729458E-1,4.9517247E-1,-1.3573368E-1,4.2460302E-1,8.581922E0,-3.7135834E-1,4.3321416E-1,1.7698723E-1,8.1943613E-1,-4.699012E-1,2.3269275E-1,-3.364107E-1,6.3417846E-1,4.5159143E-1,-3.7113613E-1,7.6378E0,6.749042E-1,-5.0262594E-1,7.3808306E-1,-1.8462104E-1,1.5295022E0,-4.7682777E-1,1.9906576E-1,-3.975729E-1,8.189931E-1,7.136266E-1,-3.536276E-1,-4.860308E-1,4.3457386E-1,2.2090495E0,4.3343553E-1,2.1217045E-1,-5.193629E-1,-4.752037E-1,4.1218564E-1,-1.8090086E-1,1.0341567E0,4.1028634E-1,1.5879588E0,3.9853758E-1,-4.6309716E-1,-9.3854025E-2,-4.9892414E-1,8.785473E-1,-2.3180221E-1,-4.6291286E-1,4.2969866E0,-3.6342278E-2,1.1849164E0,-4.1972625E-1,1.1683519E0,2.3644404E-1,-3.7127742E-1,-3.1570822E-1,1.189479E0],"categories":[],"categories_nodes":[],"categories_segments":[],"categories_sizes":[],"default_left":[1,1,1,1,0,1,1,1,1,1,1,1,1,1,1,0,1,1,0,1,0,0,0,0,1,1,1,1,1,1,1,0,0,0,1,1,1,0,0,0,0,0,0,0,0,0,0,0,0,0,0,0,0,0,0],"id":28,"left_children":[1,3,5,7,-1,9,11,13,15,17,19,21,23,25,27,-1,29,31,-1,33,-1,-1,-1,-1,35,37,39,41,43,45,47,-1,-1,-1,49,51,53,-1,-1,-1,-1,-1,-1,-1,-1,-1,-1,-1,-1,-1,-1,-1,-1,-1,-1],"loss_changes":[3.1378769E1,2.2819943E2,1.334553E1,3.9332993E1,0E0,4.2812138E0,4.73954E0,3.7712456E1,1.479461E2,2.7660532E0,5.9640775E0,5.9964406E-1,4.8164682E0,3.54115E1,7.9691935E0,0E0,5.5806335E1,8.230324E-1,0E0,1.7280684E0,0E0,0E0,0E0,0E0,4.554535E0,3.278032E1,3.6083226E0,3.2643127E-1,3.4542193E0,1.16880356E2,4.722054E1,0E0,0E0,0E0,2.6472132E0,4.4102824E-1,3.9093132E0,0E0,0E0,0E0,0E0,0E0,0E0,0E0,0E0,0E0,0E0,0E0,0E0,0E0,0E0,0E0,0E0,0E0,0E0],"parents":[2147483647,0,0,1,1,2,2,3,3,5,5,6,6,7,7,8,8,9,9,10,10,11,11,12,12,13,13,14,14,16,16,17,17,19,19,24,24,25,25,26,26,27,27,28,28,29,29,30,30,34,34,35,35,36,36],"right_children":[2,4,6,8,-1,10,12,14,16,18,20,22,24,26,28,-1,30,32,-1,34,-1,-1,-1,-1,36,38,40,42,44,46,48,-1,-1,-1,50,52,54,-1,-1,-1,-1,-1,-1,-1,-1,-1,-1,-1,-1,-1,-1,-1,-1,-1,-1],"split_conditions":[8.7653697E-1,8.5070133E-1,6.645794E-1,-1.8740761E-1,2.5745766E0,2.4826589E0,1.2323338E-1,-2.4040183E-1,-1.7601413E-1,4.3237705E0,-8.639965E-1,-8.64303E-1,1.3036395E0,-2.1241656E-1,9.454683E-1,2.29134E0,-5.9074944E-1,-2.6064968E0,2.2142492E-1,4.1171207E0,4.5885065E-1,-1.4304833E-1,5.971973E-2,-1.19271874E-1,-3.5835347E-1,-3.5757852E-1,-1.1502597E0,-1.1729388E0,-4.219995E-1,-2.632217E-1,4.6471292E-1,6.365114E-2,-1.5580888E-1,-1.4256111E-1,-1.5281031E0,6.8951607E-1,-1.2474189E0,1.2308591E-1,4.7638765E-1,1.1956128E-1,-1.3892916E-1,-2.8156208E-2,-1.4967725E-1,2.635642E-1,-6.9540665E-2,-1.3887386E-1,1.289096E0,-1.0902684E-2,3.5547492E-1,-1.2591788E-1,3.505056E-1,7.0933215E-2,-1.1138323E-1,-9.471247E-2,3.568437E-1],"split_indices":[6,6,10,6,0,9,9,5,6,13,3,2,6,13,9,0,10,10,0,12,0,0,0,0,12,9,4,6,8,9,10,0,0,0,10,7,3,0,0,0,0,0,0,0,0,0,0,0,0,0,0,0,0,0,0],"split_type":[0,0,0,0,0,0,0,0,0,0,0,0,0,0,0,0,0,0,0,0,0,0,0,0,0,0,0,0,0,0,0,0,0,0,0,0,0,0,0,0,0,0,0,0,0,0,0,0,0,0,0,0,0,0,0],"sum_hessian":[5.026102E2,4.0525995E2,9.7350235E1,4.0279742E2,2.4625266E0,6.908612E1,2.8264112E1,2.4843935E2,1.543581E2,5.958733E1,9.498793E0,5.7126446E0,2.2551468E1,1.6563435E2,8.2805E1,2.127907E0,1.5223018E2,5.858418E1,1.0031519E0,7.835091E0,1.6637012E0,4.612613E0,1.1000314E0,3.2510223E0,1.9300446E1,1.2505316E2,4.058118E1,7.2817894E1,9.987103E0,1.9593927E1,1.3263626E2,1.0732129E0,5.7510967E1,5.406463E0,2.4286282E0,3.44594E0,1.5854506E1,9.3933266E1,3.1119896E1,4.820298E0,3.5760883E1,2.581317E0,7.023658E1,5.8026733E0,4.18443E0,8.936305E0,1.0657622E1,8.220105E1,5.0435207E1,1.368249E0,1.060379E0,1.0036815E0,2.4422586E0,1.5294931E0,1.4325012E1],"tree_param":{"num_deleted":"0","num_feature":"14","num_nodes":"55","size_leaf_vector":"0"}},{"base_weights":[-4.891345E-1,-5.0956386E-1,-2.5300533E-1,-4.9637115E-1,1.6196301E0,2.9186654E0,-3.0767456E-1],"categories":[],"categories_nodes":[],"categories_segments":[],"categories_sizes":[],"default_left":[1,0,1,0,1,0,0],"id":29,"left_children":[1,-1,3,-1,5,-1,-1],"loss_changes":[1.4618988E0,0E0,1.3676513E1,0E0,9.618618E0,0E0,0E0],"parents":[2147483647,0,0,2,2,4,4],"right_children":[2,-1,4,-1,6,-1,-1],"split_conditions":[1.5362518E0,-1.5286916E-1,1.3131113E0,-1.4891136E-1,7.632313E-1,8.755997E-1,-9.230237E-2],"split_indices":[10,0,1,0,2,0,0],"split_type":[0,0,0,0,0,0,0],"sum_hessian":[3.287756E2,3.015299E2,2.7245716E1,2.4762535E1,2.48318E0,1.1760954E0,1.3070846E0],"tree_param":{"num_deleted":"0","num_feature":"14","num_nodes":"7","size_leaf_vector":"0"}},{"base_weights":[1.7211786E-1,5.144302E-1,-3.3920787E-2,-5.1444185E-1,6.490339E-1,-2.2220045E-1,5.0728106E-1,7.1209013E-1,-4.071835E-1,-3.250257E-1,9.2292964E-1,1.0289952E0,8.8652365E-2,-2.1184796E-1,7.5971586E-1,2.1681543E-1,-4.9699175E-1,-3.4858936E-1,1.1786432E0,1.312249E0,-4.222044E-1,1.2015237E0,-2.4189599E-1,4.328158E-1,-4.4252536E-1,9.502484E-1,-5.40789E-1,-1.7910239E-1,8.1883246E-1,-1.15109496E-1,-4.8571855E-1,1.7507603E0,1.09914795E-1,1.2346617E0,1.3130191E-1,-4.0119642E-1,2.3889028E-1,9.867775E-1,6.44855E-2,-4.908039E-1,2.3863223E-1,1.2179085E0,-4.5787996E-1,8.665355E-1,-2.6738614E-1,-4.450574E-1,1.0603504E0,7.069308E-1,-4.993299E-1,-3.9005882E-1,1.5102793E0,3.8263845E-1,-3.538914E-1],"categories":[],"categories_nodes":[],"categories_segments":[],"categories_sizes":[],"default_left":[1,1,1,0,1,1,1,1,1,1,1,1,1,1,1,0,0,1,1,0,0,1,1,1,1,0,0,1,1,1,1,0,0,0,0,0,0,1,1,0,0,0,0,0,0,0,0,0,0,0,0,0,0],"id":30,"left_children":[1,3,5,-1,7,9,11,13,15,17,19,21,23,25,27,-1,-1,29,31,-1,-1,33,35,37,39,-1,-1,41,43,45,47,-1,-1,-1,-1,-1,-1,49,51,-1,-1,-1,-1,-1,-1,-1,-1,-1,-1,-1,-1,-1,-1],"loss_changes":[3.8441948E1,2.869196E1,3.4863125E1,0E0,1.2379288E1,3.017366E1,1.9199484E1,7.714386E0,7.164854E-1,8.685751E0,1.1637714E1,8.891785E0,9.350126E0,4.029347E0,9.218636E0,0E0,0E0,7.330765E0,2.150342E0,0E0,0E0,1.0687408E0,5.187034E-1,6.2425494E0,7.811408E-1,0E0,0E0,4.6483827E0,8.209068E0,3.40885E1,2.7074394E0,0E0,0E0,0E0,0E0,0E0,0E0,9.435196E0,2.7487788E0,0E0,0E0,0E0,0E0,0E0,0E0,0E0,0E0,0E0,0E0,0E0,0E0,0E0,0E0],"parents":[2147483647,0,0,1,1,2,2,4,4,5,5,6,6,7,7,8,8,9,9,10,10,11,11,12,12,13,13,14,14,17,17,18,18,21,21,22,22,23,23,24,24,27,27,28,28,29,29,30,30,37,37,38,38],"right_children":[2,4,6,-1,8,10,12,14,16,18,20,22,24,26,28,-1,-1,30,32,-1,-1,34,36,38,40,-1,-1,42,44,46,48,-1,-1,-1,-1,-1,-1,50,52,-1,-1,-1,-1,-1,-1,-1,-1,-1,-1,-1,-1,-1,-1],"split_conditions":[-5.064181E-1,-5.4252374E-1,5.140567E-1,-1.5433256E-1,1.0429239E0,1.1729674E0,-1.4198691E-2,-5.490669E-1,-3.9460535E0,3.7145104E0,-6.9181895E-1,-5.5584025E-1,-8.195112E-1,-5.802132E-1,-3.4163937E-1,6.5044634E-2,-1.4909753E-1,-2.9079217E-1,-1.040524E0,3.936747E-1,-1.2666133E-1,1.5736934E0,1.2595136E-1,1.0445001E0,6.169276E-1,2.8507453E-1,-1.622367E-1,-1.2795435E0,2.3340407E-1,-2.9423475E-1,-3.56347E0,5.2522814E-1,3.297444E-2,3.7039852E-1,3.9390575E-2,-1.2035893E-1,7.166708E-2,-1.2929082E0,2.9984846E0,-1.4724118E-1,7.158967E-2,3.6537257E-1,-1.37364E-1,2.5996065E-1,-8.021584E-2,-1.3351722E-1,3.1810513E-1,2.1207926E-1,-1.4979897E-1,-1.1701765E-1,4.530838E-1,1.1479154E-1,-1.0616743E-1],"split_indices":[13,9,12,0,5,4,13,6,4,10,11,4,1,12,12,0,0,10,0,0,0,7,5,9,8,0,0,5,11,10,8,0,0,0,0,0,0,1,13,0,0,0,0,0,0,0,0,0,0,0,0,0,0],"split_type":[0,0,0,0,0,0,0,0,0,0,0,0,0,0,0,0,0,0,0,0,0,0,0,0,0,0,0,0,0,0,0,0,0,0,0,0,0,0,0,0,0,0,0,0,0,0,0,0,0,0,0,0,0],"sum_hessian":[5.437998E2,2.0376617E2,3.4003363E2,2.3247452E1,1.8051872E2,2.5270801E2,8.732561E1,1.7065636E2,9.862373E0,2.325433E2,2.0164715E1,3.8227165E1,4.9098442E1,8.196495E0,1.6245985E2,1.0629135E0,8.79946E0,2.2971172E2,2.8315864E0,1.5657456E1,4.5072575E0,3.370602E1,4.521145E0,2.9906466E1,1.9191977E1,1.3915521E0,6.8049426E0,9.503715E0,1.5295615E2,8.567631E1,1.440354E2,1.4286324E0,1.4029541E0,3.2544666E1,1.1613543E0,3.5202951E0,1.0008495E0,1.1273014E1,1.8633451E1,1.8182693E1,1.0092821E0,1.0205891E0,8.483126E0,1.4671516E2,6.240979E0,6.7383385E1,1.8292927E1,1.0505178E0,1.4298488E2,3.175691E0,8.097323E0,1.0633031E1,8.000422E0],"tree_param":{"num_deleted":"0","num_feature":"14","num_nodes":"53","size_leaf_vector":"0"}},{"base_weights":[-4.8336664E-1,-5.097552E-1,-1.07911E-1,-4.4526425E-1,1.9883366E0,2.3215403E-1,-4.9185047E-1],"categories":[],"categories_nodes":[],"categories_segments":[],"categories_sizes":[],"default_left":[1,0,1,1,0,0,0],"id":31,"left_children":[1,-1,3,5,-1,-1,-1],"loss_changes":[3.2184906E0,0E0,1.7125898E1,7.642522E-1,0E0,0E0,0E0],"parents":[2147483647,0,0,2,2,3,3],"right_children":[2,-1,4,6,-1,-1,-1],"split_conditions":[1.6970851E0,-1.5292656E-1,8.971598E-1,1.77727E0,5.96501E-1,6.964621E-2,-1.4755514E-1],"split_indices":[5,0,2,5,0,0,0],"split_type":[0,0,0,0,0,0,0],"sum_hessian":[3.2939877E2,3.074334E2,2.196538E1,1.9598883E1,2.366497E0,1.0047867E0,1.8594097E1],"tree_param":{"num_deleted":"0","num_feature":"14","num_nodes":"7","size_leaf_vector":"0"}},{"base_weights":[-4.8623148E-1,-5.097916E-1,-4.3091282E-2,-4.8201853E-1,1.6806139E0,2.9596334E0,-3.222025E-1],"categories":[],"categories_nodes":[],"categories_segments":[],"categories_sizes":[],"default_left":[1,0,1,0,1,0,0],"id":32,"left_children":[1,-1,3,-1,5,-1,-1],"loss_changes":[3.4245453E0,0E0,1.4244823E1,0E0,1.0756679E1,0E0,0E0],"parents":[2147483647,0,0,2,2,4,4],"right_children":[2,-1,4,-1,6,-1,-1],"split_conditions":[2.6687996E0,-1.5293749E-1,1.0048677E0,-1.4460556E-1,-6.9467306E-1,8.8789004E-1,-9.6660756E-2],"split_indices":[10,0,3,0,0,0,0],"split_type":[0,0,0,0,0,0,0],"sum_hessian":[3.2911206E2,3.1235492E2,1.6757164E1,1.3930289E1,2.826874E0,1.433616E0,1.3932579E0],"tree_param":{"num_deleted":"0","num_feature":"14","num_nodes":"7","size_leaf_vector":"0"}},{"base_weights":[5.6871187E-2,-3.6528623E-1,7.40661E-1,-4.5502123E-1,3.2456434E-1,2.5910863E-1,-4.7447878E-1,1.5295634E0,1.3492957E-1,5.9134334E-1,-3.714955E-1,2.4675187E-1,-4.8122546E-1,-2.713381E-1,2.0615666E0,-6.294956E-2,1.1231602E0,-1.6165583E-1,1.5834098E0,-2.913147E-1,7.3524314E-1,-5.0114447E-1,-2.554743E-1,5.413213E-1,2.6291003E0,-1.5179102E-1,1.2201763E0,2.014624E0,-7.712003E-2,-3.595763E-1,2.3621544E-1,2.3808499E-1,-5.0498146E-1,-4.8722506E-1,2.1421634E-1,-2.6610938E-1,6.5201396E-1,1.7384906E-1,2.915374E0,-3.0665118E-1,2.3834972E-1],"categories":[],"categories_nodes":[],"categories_segments":[],"categories_sizes":[],"default_left":[1,1,0,1,1,1,1,1,1,1,0,1,1,0,1,1,1,1,0,0,0,1,1,0,0,1,0,1,1,0,0,0,0,0,0,0,0,0,0,0,0],"id":33,"left_children":[1,3,-1,5,7,9,11,13,15,17,-1,19,21,-1,23,25,27,29,-1,-1,-1,31,33,-1,-1,35,-1,37,39,-1,-1,-1,-1,-1,-1,-1,-1,-1,-1,-1,-1],"loss_changes":[1.5313445E2,2.0457245E1,0E0,4.1627655E0,8.556505E0,1.9707938E0,1.4976273E0,5.4624834E0,6.764462E0,4.633511E0,0E0,1.0782247E0,1.1359558E0,0E0,2.0856743E0,3.544256E0,6.322608E0,4.187254E-1,0E0,0E0,0E0,8.4991455E-1,2.807223E0,0E0,0E0,2.787575E0,0E0,5.0381165E0,3.206991E-1,0E0,0E0,0E0,0E0,0E0,0E0,0E0,0E0,0E0,0E0,0E0,0E0],"parents":[2147483647,0,0,1,1,3,3,4,4,5,5,6,6,7,7,8,8,9,9,11,11,12,12,14,14,15,15,16,16,17,17,21,21,22,22,25,25,27,27,28,28],"right_children":[2,4,-1,6,8,10,12,14,16,18,-1,20,22,-1,24,26,28,30,-1,-1,-1,32,34,-1,-1,36,-1,38,40,-1,-1,-1,-1,-1,-1,-1,-1,-1,-1,-1,-1],"split_conditions":[1.8299639E0,1.6513548E0,2.2219832E-1,-2.2917218E0,-1.2847266E0,-9.8990524E-1,-2.1404772E0,-1.3283031E0,4.443259E0,-1.0828865E0,-1.1144865E-1,1.1047945E0,5.560186E-1,-8.140144E-2,3.0276427E-1,3.4931655E0,-8.519943E-1,2.069122E0,4.7502294E-1,-8.739441E-2,2.2057295E-1,-1.0021124E0,8.40368E-1,1.6239639E-1,7.8873014E-1,1.5042363E0,3.6605293E-1,-1.0954721E0,3.1813834E0,-1.07872896E-1,7.086463E-2,7.14255E-2,-1.5149444E-1,-1.4616752E-1,6.42649E-2,-7.9832815E-2,1.9560419E-1,5.215472E-2,8.746123E-1,-9.199536E-2,7.150492E-2],"split_indices":[3,7,0,8,3,2,10,3,11,2,0,8,9,0,6,5,10,6,0,0,0,11,6,0,0,4,0,3,7,0,0,0,0,0,0,0,0,0,0,0,0],"split_type":[0,0,0,0,0,0,0,0,0,0,0,0,0,0,0,0,0,0,0,0,0,0,0,0,0,0,0,0,0,0,0,0,0,0,0,0,0,0,0,0,0],"sum_hessian":[5.285511E2,3.2708282E2,2.0146825E2,2.8973483E2,3.734799E1,7.3581896E0,2.8237665E2,4.1176033E0,3.3230385E1,4.859967E0,2.4982224E0,2.2873034E0,2.8008936E2,1.0507258E0,3.0668774E0,2.8466646E1,4.76374E0,3.2387443E0,1.6212232E0,1.2804971E0,1.0068064E0,2.5625864E2,2.3830708E1,1.3648051E0,1.7020723E0,2.74479E1,1.0187442E0,2.344206E0,2.4195337E0,2.2271175E0,1.0116267E0,1.0079961E0,2.5525064E2,1.593223E1,7.898477E0,2.4615925E1,2.8319764E0,1.1621789E0,1.1820272E0,1.4167101E0,1.0028236E0],"tree_param":{"num_deleted":"0","num_feature":"14","num_nodes":"41","size_leaf_vector":"0"}},{"base_weights":[1.2219525E-1,5.109673E-1,-2.611684E-1,-4.0333262E-1,6.1997926E-1,-4.6269736E-1,9.229742E-2,-3.3070303E-2,-5.1810336E-1,-4.9630898E-1,6.830581E-1,-4.8498812E-1,6.346197E-1,-3.0765998E-1,6.767365E-1,-4.8656693E-1,1.2209138E0,7.646431E-1,-3.2409728E-1,-4.9065006E-1,2.3513411E-1,-3.2143077E-1,1.4519404E0,2.4721877E-1,-4.4178548E-1,-1.8322778E-1,9.460672E-1,5.3878874E-1,8.9109373E-1,9.315113E-1,-4.898355E-1,1.3586248E-1,-4.9634573E-1,-1.7322585E-2,1.3234476E0,1.8058115E-1,-5.014845E-1,-4.576683E-1,1.0019903E0,1.1706243E0,-1.5029448E-2,8.457915E-1,-5.513274E-1,9.145478E-1,-3.497392E-1,7.640523E-1,-4.544261E-1,1.2004969E0,-3.910987E-1,9.6777856E-1,2.1412485E0,7.3408735E-1,-2.6578724E-1],"categories":[],"categories_nodes":[],"categories_segments":[],"categories_sizes":[],"default_left":[1,1,1,1,1,1,1,1,0,0,1,1,1,1,1,0,0,1,1,1,0,0,0,1,1,1,1,1,1,0,0,0,0,1,0,1,0,0,0,1,1,0,0,0,0,0,0,0,0,0,0,0,0],"id":34,"left_children":[1,3,5,7,9,11,13,15,-1,-1,17,19,21,23,25,-1,-1,27,29,31,-1,-1,-1,33,35,37,39,41,43,-1,-1,-1,-1,45,-1,47,-1,-1,-1,49,51,-1,-1,-1,-1,-1,-1,-1,-1,-1,-1,-1,-1],"loss_changes":[8.0860954E1,2.7087524E1,1.9516672E1,1.227561E0,1.7306992E1,4.570629E0,2.3607521E1,5.142885E0,0E0,0E0,1.9023903E1,8.141098E-1,3.516467E0,4.583503E0,9.6659355E0,0E0,0E0,5.5653763E0,4.165814E0,6.7536545E-1,0E0,0E0,0E0,3.537453E0,1.9027748E0,3.9104633E0,6.7883453E0,2.6740015E1,4.2246704E0,0E0,0E0,0E0,0E0,4.0685873E0,0E0,3.3873808E0,0E0,0E0,0E0,2.9371452E0,1.4967098E0,0E0,0E0,0E0,0E0,0E0,0E0,0E0,0E0,0E0,0E0,0E0,0E0],"parents":[2147483647,0,0,1,1,2,2,3,3,4,4,5,5,6,6,7,7,10,10,11,11,12,12,13,13,14,14,17,17,18,18,19,19,23,23,24,24,25,25,26,26,27,27,28,28,33,33,35,35,39,39,40,40],"right_children":[2,4,6,8,10,12,14,16,-1,-1,18,20,22,24,26,-1,-1,28,30,32,-1,-1,-1,34,36,38,40,42,44,-1,-1,-1,-1,46,-1,48,-1,-1,-1,50,52,-1,-1,-1,-1,-1,-1,-1,-1,-1,-1,-1,-1],"split_conditions":[-4.4908237E-1,-2.7013376E-2,9.267321E-2,-7.862549E-1,-9.405008E-1,3.433166E0,4.232568E-1,-7.797919E-1,-1.5543102E-1,-1.488927E-1,-1.2362138E-1,2.971949E0,-1.0386082E0,-2.1210728E0,-3.4323037E-1,-1.4597009E-1,3.6627415E-1,1.4645256E-1,-1.2311995E0,-1.1577375E0,7.0540234E-2,-9.6429236E-2,4.3558213E-1,-8.805959E-1,-2.985844E0,3.8426275E0,1.5622356E0,4.985594E-2,1.6343606E0,2.794534E-1,-1.4695066E-1,4.0758748E-2,-1.4890373E-1,-1.1647778E0,3.970343E-1,-1.2206352E0,-1.5044536E-1,-1.3730049E-1,3.005971E-1,6.272231E-1,-1.2763727E0,2.5373748E-1,-1.6539823E-1,2.7436435E-1,-1.04921766E-1,2.292157E-1,-1.3632783E-1,3.601491E-1,-1.1732962E-1,2.9033357E-1,6.423746E-1,2.2022621E-1,-7.973617E-2],"split_indices":[13,4,11,13,10,9,8,4,0,0,10,5,2,4,10,0,0,5,13,11,0,0,0,3,8,11,10,8,6,0,0,0,0,1,0,3,0,0,0,7,0,0,0,0,0,0,0,0,0,0,0,0,0],"split_type":[0,0,0,0,0,0,0,0,0,0,0,0,0,0,0,0,0,0,0,0,0,0,0,0,0,0,0,0,0,0,0,0,0,0,0,0,0,0,0,0,0,0,0,0,0,0,0,0,0,0,0,0,0],"sum_hessian":[5.40646E2,2.6826425E2,2.7238174E2,2.8290182E1,2.3997408E2,1.7327803E2,9.910371E1,6.9989605E0,2.1291224E1,1.2467746E1,2.2750632E2,1.7037508E2,2.9029553E0,5.9119328E1,3.998438E1,5.589523E0,1.4094377E0,2.1068083E2,1.682549E1,1.6936214E2,1.0129474E0,1.6175605E0,1.2853947E0,1.1344365E1,4.777496E1,9.612304E0,3.0372076E1,7.750662E1,1.3317421E2,1.4231954E0,1.5402296E1,1.3199188E0,1.680422E2,9.895834E0,1.4485313E0,4.004359E0,4.3770603E1,8.303466E0,1.3088375E0,2.4443035E1,5.929042E0,6.06502E1,1.685642E1,1.3096175E2,2.2124684E0,3.2815971E0,6.614237E0,1.0432261E0,2.9611328E0,2.1869675E1,2.5733607E0,1.0035498E0,4.9254923E0],"tree_param":{"num_deleted":"0","num_feature":"14","num_nodes":"53","size_leaf_vector":"0"}},{"base_weights":[-4.860384E-1,-5.093294E-1,-3.2117823E-1,-5.0286704E-1,1.0578364E0,3.2278686E0,-1.74653E-1,-3.659822E-1,2.340525E-1],"categories":[],"categories_nodes":[],"categories_segments":[],"categories_sizes":[],"default_left":[1,0,1,0,1,0,1,0,0],"id":35,"left_children":[1,-1,3,-1,5,-1,7,-1,-1],"loss_changes":[1.103035E0,0E0,1.1441274E1,0E0,1.4982332E1,0E0,4.287048E-1,0E0,0E0],"parents":[2147483647,0,0,2,2,4,4,6,6],"right_children":[2,-1,4,-1,6,-1,8,-1,-1],"split_conditions":[1.0725362E0,-1.5279882E-1,8.306309E-1,-1.5086012E-1,-4.9265422E-2,9.683606E-1,4.5874447E-1,-1.0979467E-1,7.0215754E-2],"split_indices":[7,0,1,0,6,0,4,0,0],"split_type":[0,0,0,0,0,0,0,0,0],"sum_hessian":[3.2886996E2,2.8632874E2,4.254123E1,3.8150185E1,4.391044E0,1.0041189E0,3.3869255E0,2.3781595E0,1.0087658E0],"tree_param":{"num_deleted":"0","num_feature":"14","num_nodes":"9","size_leaf_vector":"0"}},{"base_weights":[1.374694E-1,3.9825732E-1,-3.1452656E-1,5.9838665E-1,-2.0918101E-1,1.8851297E0,-3.531445E-1,-3.777696E-1,7.083866E-1,-3.3227348E-1,9.4735813E-1,1.9623044E-1,2.586606E0,6.5979147E-1,-4.0953794E-1,7.2073746E-1,-4.5031866E-1,-4.6931776E-1,7.717815E-1,6.536208E-1,-4.008172E-1,2.2261379E0,4.7260243E-1,1.854525E0,2.1472688E-1,-4.4483715E-1,4.7643837E-1,-4.880881E-1,1.5577072E-1,8.207445E-1,-4.556426E-1,-3.144721E-1,1.1046741E0,5.307913E-1,-4.5248106E-1,-1.9107611E-1,1.149984E0,-4.3002173E-1,1.0486634E0,8.026118E-2,-4.8483127E-1,8.4690875E-1,-3.4986314E-1,8.385106E-1,-3.776514E-1,1.6080016E-1,1.4772497E0,1.4709864E0,-3.4927496E-1,-5.056635E-1,-1.7688682E-2,2.2287433E-1,-3.753242E-1,1.9292876E0,-2.8603622E-1,1.600811E0,-2.7207482E-1,-2.2755095E-1,1.0475279E0,-4.9630997E-1,-1.600542E-2,1.2766862E0,-2.964247E-1],"categories":[],"categories_nodes":[],"categories_segments":[],"categories_sizes":[],"default_left":[1,1,1,1,1,1,1,1,1,1,1,0,0,1,1,0,1,0,1,1,1,0,1,0,1,1,1,0,0,1,0,0,1,1,1,1,1,0,1,1,1,1,0,0,0,0,0,0,0,0,0,0,0,0,0,0,0,0,0,0,0,0,0],"id":36,"left_children":[1,3,5,7,9,11,13,15,17,19,21,-1,-1,23,25,-1,27,-1,29,31,33,-1,35,-1,37,39,41,-1,-1,43,-1,-1,45,47,49,51,53,-1,55,57,59,61,-1,-1,-1,-1,-1,-1,-1,-1,-1,-1,-1,-1,-1,-1,-1,-1,-1,-1,-1,-1,-1],"loss_changes":[6.310425E1,4.1366108E1,1.73185E1,2.7695427E1,1.2388756E1,3.6864958E0,1.1323448E1,2.4381866E0,1.7527626E1,5.492032E0,4.0585933E0,0E0,0E0,5.2315583E0,5.963627E0,0E0,6.5962124E-1,0E0,1.3508316E1,2.7102199E0,3.7528849E0,0E0,3.5503058E0,0E0,5.206675E0,3.7640877E0,2.601241E0,0E0,0E0,4.798828E0,0E0,0E0,1.1384778E0,4.067533E0,1.6024761E0,4.3445924E-1,4.8143215E0,0E0,3.460034E0,4.2316313E0,8.7984085E-1,3.0766213E0,0E0,0E0,0E0,0E0,0E0,0E0,0E0,0E0,0E0,0E0,0E0,0E0,0E0,0E0,0E0,0E0,0E0,0E0,0E0,0E0,0E0],"parents":[2147483647,0,0,1,1,2,2,3,3,4,4,5,5,6,6,7,7,8,8,9,9,10,10,13,13,14,14,16,16,18,18,19,19,20,20,22,22,24,24,25,25,26,26,29,29,32,32,33,33,34,34,35,35,36,36,38,38,39,39,40,40,41,41],"right_children":[2,4,6,8,10,12,14,16,18,20,22,-1,-1,24,26,-1,28,-1,30,32,34,-1,36,-1,38,40,42,-1,-1,44,-1,-1,46,48,50,52,54,-1,56,58,60,62,-1,-1,-1,-1,-1,-1,-1,-1,-1,-1,-1,-1,-1,-1,-1,-1,-1,-1,-1,-1,-1],"split_conditions":[-1.7780432E-1,-2.970763E-1,-2.3103223E0,1.1404043E-1,2.185408E0,-1.0876124E0,-2.3511539E0,-9.2208135E-1,-5.260143E-1,-7.1613204E-1,3.862431E-1,5.8869135E-2,7.7598184E-1,7.137474E-1,2.0632133E0,2.1622124E-1,5.605942E-1,-1.4079534E-1,-1.375974E-1,-2.3309462E0,-2.4667594E0,6.678414E-1,-1.0516729E0,5.563575E-1,3.5165143E0,-1.2269863E0,-9.356164E-1,-1.4642644E-1,4.673122E-2,5.101868E-1,-1.3669279E-1,-9.4341636E-2,1.6018908E0,2.1731782E0,2.82134E-1,-1.1326104E0,-9.4948155E-1,-1.2900652E-1,4.458205E0,-9.0029526E-1,2.2193174E0,2.8724093E0,-1.04958944E-1,2.5155318E-1,-1.1329542E-1,4.824005E-2,4.4317493E-1,4.4129592E-1,-1.0478249E-1,-1.5169907E-1,-5.306605E-3,6.68623E-2,-1.12597264E-1,5.787863E-1,-8.581087E-2,4.8024333E-1,-8.162245E-2,-6.826529E-2,3.142584E-1,-1.48893E-1,-4.801626E-3,3.830059E-1,-8.892741E-2],"split_indices":[10,7,12,8,12,3,8,7,13,6,7,0,0,10,6,0,12,0,12,10,10,0,0,0,10,4,3,0,0,5,0,0,7,7,11,2,0,0,10,0,12,13,0,0,0,0,0,0,0,0,0,0,0,0,0,0,0,0,0,0,0,0,0],"split_type":[0,0,0,0,0,0,0,0,0,0,0,0,0,0,0,0,0,0,0,0,0,0,0,0,0,0,0,0,0,0,0,0,0,0,0,0,0,0,0,0,0,0,0,0,0,0,0,0,0,0,0,0,0,0,0,0,0,0,0,0,0,0,0],"sum_hessian":[5.332858E2,3.3824667E2,1.9503915E2,2.5443446E2,8.38122E1,2.5401251E0,1.9249902E2,2.5521196E1,2.2891327E2,7.639414E1,7.4180617E0,1.1209722E0,1.4191531E0,9.587586E0,1.8291144E2,1.0275779E0,2.4493618E1,1.1365737E1,2.1754753E2,4.411127E0,7.198302E1,1.0096089E0,6.408453E0,1.7426746E0,7.8449116E0,1.7638193E2,6.5295224E0,2.3240068E1,1.2535485E0,2.0952089E2,8.026641E0,1.4982493E0,2.9128776E0,3.2949102E0,6.86881E1,3.599595E0,2.8088577E0,4.697466E0,3.1474457E0,1.2412081E1,1.6396983E2,4.4910374E0,2.0384853E0,2.0675606E2,2.7648308E0,1.2295517E0,1.6833259E0,1.2683998E0,2.0265102E0,6.1056824E1,7.6312823E0,1.044122E0,2.555473E0,1.5981002E0,1.2107575E0,2.0700028E0,1.0774428E0,9.995859E0,2.4162216E0,1.5999394E2,3.9759E0,3.1793058E0,1.3117316E0],"tree_param":{"num_deleted":"0","num_feature":"14","num_nodes":"63","size_leaf_vector":"0"}},{"base_weights":[-4.8902324E-1,-5.033815E-1,-2.531652E-1,-4.8786235E-1,1.156646E0,-2.9264152E-1,2.2228465E0],"categories":[],"categories_nodes":[],"categories_segments":[],"categories_sizes":[],"default_left":[1,0,1,0,1,0,0],"id":37,"left_children":[1,-1,3,-1,5,-1,-1],"loss_changes":[9.891205E-1,0E0,7.490034E0,0E0,5.7248797E0,0E0,0E0],"parents":[2147483647,0,0,2,2,4,4],"right_children":[2,-1,4,-1,6,-1,-1],"split_conditions":[1.7528572E0,-1.5101445E-1,8.1804675E-1,-1.4635871E-1,5.8169985E-1,-8.7792456E-2,6.6685396E-1],"split_indices":[5,0,1,0,13,0,0],"split_type":[0,0,0,0,0,0,0],"sum_hessian":[3.2870493E2,3.0877353E2,1.9931385E1,1.7647488E1,2.2838988E0,1.275559E0,1.0083399E0],"tree_param":{"num_deleted":"0","num_feature":"14","num_nodes":"7","size_leaf_vector":"0"}},{"base_weights":[-4.891422E-1,-5.097012E-1,-1.8094599E-1,-4.8986554E-1,1.4930804E0,-2.9933137E-1,2.4910758E0],"categories":[],"categories_nodes":[],"categories_segments":[],"categories_sizes":[],"default_left":[1,0,1,0,1,0,0],"id":38,"left_children":[1,-1,3,-1,5,-1,-1],"loss_changes":[1.9977341E0,0E0,1.2200318E1,0E0,7.3679485E0,0E0,0E0],"parents":[2147483647,0,0,2,2,4,4],"right_children":[2,-1,4,-1,6,-1,-1],"split_conditions":[2.6532648E0,-1.5291037E-1,-8.033061E-2,-1.4695966E-1,2.0910413E0,-8.979941E-2,7.4732274E-1],"split_indices":[7,0,2,0,11,0,0],"split_type":[0,0,0,0,0,0,0],"sum_hessian":[3.2884628E2,3.076687E2,2.1177595E1,1.8475548E1,2.7020466E0,1.2167737E0,1.4852729E0],"tree_param":{"num_deleted":"0","num_feature":"14","num_nodes":"7","size_leaf_vector":"0"}},{"base_weights":[-4.8344684E-1,-5.0965697E-1,-1.283401E-1,-4.941998E-1,2.1746857E0],"categories":[],"categories_nodes":[],